{"learner":{"attributes":{"scikit_learn":"{\"_estimator_type\": \"classifier\"}"},"feature_names":[],"feature_types":[],"gradient_booster":{"model":{"gbtree_model_param":{"num_parallel_tree":"1","num_trees":"100"},"iteration_indptr":[0,1,2,3,4,5,6,7,8,9,10,11,12,13,14,15,16,17,18,19,20,21,22,23,24,25,26,27,28,29,30,31,32,33,34,35,36,37,38,39,40,41,42,43,44,45,46,47,48,49,50,51,52,53,54,55,56,57,58,59,60,61,62,63,64,65,66,67,68,69,70,71,72,73,74,75,76,77,78,79,80,81,82,83,84,85,86,87,88,89,90,91,92,93,94,95,96,97,98,99,100],"tree_info":[0,0,0,0,0,0,0,0,0,0,0,0,0,0,0,0,0,0,0,0,0,0,0,0,0,0,0,0,0,0,0,0,0,0,0,0,0,0,0,0,0,0,0,0,0,0,0,0,0,0,0,0,0,0,0,0,0,0,0,0,0,0,0,0,0,0,0,0,0,0,0,0,0,0,0,0,0,0,0,0,0,0,0,0,0,0,0,0,0,0,0,0,0,0,0,0,0,0,0,0],"trees":[{"base_weights":[-1.3131556E-1,-3.3963734E-1,2.4053724E0,1.1960305E0,-3.81081E-1,1.2628938E0,3.412525E0,3.7078772E0,-4.1628888E-1,1.1805992E0,1.1657066E0,-3.816835E-1,3.4703262E0,-3.6971244E-1,3.8133674E0,-4.5706424E-1,2.8837566E0,1.1812158E0,1.076129E0,2.4496796E0,3.7410471E0,-3.5298645E-1,1.1641523E0,1.1959966E0,-1.4360717E-1,5.4962015E-1,1.1152434E0,2.7750358E-1,8.008527E-1,6.0719234E-1,9.816807E-1,-3.634732E-1,1.1286607E0],"categories":[],"categories_nodes":[],"categories_segments":[],"categories_sizes":[],"default_left":[1,0,0,0,0,0,0,0,1,0,0,0,0,0,0,0,0,0,0,0,0,0,0,0,0,0,0,0,0,0,0,0,0],"id":0,"left_children":[1,3,5,-1,7,9,11,13,15,-1,17,-1,19,-1,21,23,25,-1,27,29,31,-1,-1,-1,-1,-1,-1,-1,-1,-1,-1,-1,-1],"loss_changes":[4.0213574E4,1.2610385E4,6.6408477E3,0E0,1.0029404E4,6.9859033E2,8.3539844E2,3.1465234E2,9.294316E3,0E0,6.447168E2,0E0,8.285039E2,0E0,1.9973828E2,6.557927E3,7.323882E2,0E0,6.075254E2,2.16948E2,2.5540234E2,0E0,0E0,0E0,0E0,0E0,0E0,0E0,0E0,0E0,0E0,0E0,0E0],"parents":[2147483647,0,0,1,1,2,2,4,4,5,5,6,6,7,7,8,8,10,10,12,12,14,14,15,15,16,16,18,18,19,19,20,20],"right_children":[2,4,6,-1,8,10,12,14,16,-1,18,-1,20,-1,22,24,26,-1,28,30,32,-1,-1,-1,-1,-1,-1,-1,-1,-1,-1,-1,-1],"split_conditions":[4E0,4.00001E0,7.3E1,1.1960305E0,8.00001E0,3E0,2.00001E0,2.00001E0,1.54E2,1.1805992E0,2E0,-3.816835E-1,5E0,-3.6971244E-1,2.00001E0,2E0,3E0,1.1812158E0,6E0,1.12E2,2.00001E0,-3.5298645E-1,1.1641523E0,1.1959966E0,-1.4360717E-1,5.4962015E-1,1.1152434E0,2.7750358E-1,8.008527E-1,6.0719234E-1,9.816807E-1,-3.634732E-1,1.1286607E0],"split_indices":[632905,596604,632904,0,289951,289951,247644,435963,632904,0,320057,0,632905,0,232793,596647,632905,0,632905,632904,346088,0,0,0,0,0,0,0,0,0,0,0,0],"split_type":[0,0,0,0,0,0,0,0,0,0,0,0,0,0,0,0,0,0,0,0,0,0,0,0,0,0,0,0,0,0,0,0,0],"sum_hessian":[7.609505E4,7.0320914E4,5.774136E3,6.6632587E2,6.9654586E4,2.7063745E3,3.067762E3,5.937483E2,6.9060836E4,9.358193E1,2.6127925E3,3.713271E1,3.0306292E3,1.2190031E1,5.815582E2,6.821879E4,8.420498E2,8.04542E1,2.5323384E3,6.374448E2,2.3931843E3,7.5015574E0,5.740567E2,3.2950592E2,6.788928E4,3.737651E2,4.6828473E2,2.314418E3,2.1792024E2,4.2233768E2,2.1510716E2,9.939564E0,2.3832449E3],"tree_param":{"num_deleted":"0","num_feature":"632906","num_nodes":"33","size_leaf_vector":"1"}},{"base_weights":[-1.1829074E-1,-3.858749E-1,7.0227873E-1,4.049666E0,-4.0273103E-1,3.7895453E-1,1.568129E0,5.614698E-1,4.389036E0,5.6934965E-1,-4.3057138E-1,3.2144022E0,3.3805004E-1,-1.09908E0,1.6049019E0,3.637087E-1,4.413292E0,1.3285947E0,-4.4259256E-1,3.3414383E0,9.0214574E-1,2.6718123E0,2.932004E-1,4.1633093E-1,-1.1959289E0,1.3288792E0,1.8142574E0,1.3292884E0,5.3246623E-1,7.096714E-1,-1.3882263E-1,-1.9743076E-1,1.0106928E0,3.0307364E-1,2.5973877E-2,1.106037E0,6.753185E-1,3.295083E-2,2.2518796E-1,-1.5361807E-1,-3.715206E-1,1.6077639E-1,4.9061206E-1,-4.2980713E-1,5.496322E-1],"categories":[],"categories_nodes":[],"categories_segments":[],"categories_sizes":[],"default_left":[0,0,1,0,0,0,0,0,0,0,0,0,0,0,0,0,0,0,0,0,0,0,0,0,0,1,0,0,0,0,0,0,0,0,0,0,0,0,0,0,0,0,0,0,0],"id":1,"left_children":[1,3,5,7,9,11,13,-1,15,-1,17,19,21,23,25,-1,27,-1,29,31,33,35,37,-1,39,41,43,-1,-1,-1,-1,-1,-1,-1,-1,-1,-1,-1,-1,-1,-1,-1,-1,-1,-1],"loss_changes":[1.6096298E4,4.134752E3,5.04605E3,1.4655225E2,3.5281113E3,1.5214064E3,4.8246094E2,0E0,8.550293E0,0E0,3.1805166E3,5.1785767E1,1.3537664E3,1.785559E1,2.769746E2,0E0,4.645996E-1,0E0,3.072499E3,2.165393E1,8.8987637E-1,9.585498E1,1.0650087E3,0E0,1.2614517E0,5.0685034E2,1.6181445E2,0E0,0E0,0E0,0E0,0E0,0E0,0E0,0E0,0E0,0E0,0E0,0E0,0E0,0E0,0E0,0E0,0E0,0E0],"parents":[2147483647,0,0,1,1,2,2,3,3,4,4,5,5,6,6,8,8,10,10,11,11,12,12,13,13,14,14,16,16,18,18,19,19,20,20,21,21,22,22,24,24,25,25,26,26],"right_children":[2,4,6,8,10,12,14,-1,16,-1,18,20,22,24,26,-1,28,-1,30,32,34,36,38,-1,40,42,44,-1,-1,-1,-1,-1,-1,-1,-1,-1,-1,-1,-1,-1,-1,-1,-1,-1,-1],"split_conditions":[3E0,4.00001E0,8.4E1,2E0,4.00001E0,1.9E1,6.00001E0,5.614698E-1,2E0,5.6934965E-1,2.00001E0,5E0,3E0,2E0,1.12E2,3.637087E-1,1.54E2,1.3285947E0,2E0,2E0,1.6E1,4E0,4E0,4.1633093E-1,2E0,4E0,2.00001E0,1.3292884E0,5.3246623E-1,7.096714E-1,-1.3882263E-1,-1.9743076E-1,1.0106928E0,3.0307364E-1,2.5973877E-2,1.106037E0,6.753185E-1,3.295083E-2,2.2518796E-1,-1.5361807E-1,-3.715206E-1,1.6077639E-1,4.9061206E-1,-4.2980713E-1,5.496322E-1],"split_indices":[632905,596552,632904,289951,596604,632904,29679,0,596604,0,426874,632905,348501,557590,632904,0,632904,0,293164,222086,632904,632905,632905,0,2281,632905,346088,0,0,0,0,0,0,0,0,0,0,0,0,0,0,0,0,0,0],"split_type":[0,0,0,0,0,0,0,0,0,0,0,0,0,0,0,0,0,0,0,0,0,0,0,0,0,0,0,0,0,0,0,0,0,0,0,0,0,0,0,0,0,0,0,0,0],"sum_hessian":[7.330558E4,5.5279652E4,1.8025926E4,2.0837527E2,5.5071277E4,1.3125911E4,4.900015E3,2.8968485E1,1.7940678E2,6.5767505E2,5.44136E4,1.8555984E2,1.2940351E4,6.624517E1,4.83377E3,1.7458192E0,1.7766096E2,1.333747E2,5.4280227E4,1.7547415E2,1.0085701E1,2.4289076E2,1.269746E4,1.9835345E0,6.4261635E1,2.0880923E3,2.7456777E3,1.758042E2,1.8567691E0,3.858751E2,5.389435E4,1.0433483E0,1.744308E2,8.69457E0,1.3911312E0,6.890612E1,1.7398463E2,9.064925E3,3.6325356E3,4.5211763E0,5.974046E1,5.828635E2,1.5052288E3,1.4578252E1,2.7310996E3],"tree_param":{"num_deleted":"0","num_feature":"632906","num_nodes":"45","size_leaf_vector":"1"}},{"base_weights":[-9.397105E-2,-2.9873604E-1,4.8036847E-1,1.4718072E0,-3.1005746E-1,2.72482E-1,1.2321938E0,3.1177223E0,-3.2709005E-1,1.9699778E-1,1.2964327E0,-4.385741E-1,1.3145143E0,5.9888643E-1,3.5893872E0,1.8357848E0,-3.5015163E-1,2.5685024E0,1.6279864E-1,-1.0662317E0,1.3230141E0,-5.596856E-1,1.3305871E0,5.440954E-1,1.2976964E0,-3.2380065E-1,5.6604874E-1,1.2207778E0,-1.0806161E-1,9.5162797E-1,5.302884E-1,5.774064E-1,3.692893E-2,-3.420154E-1,-1.181591E-1,-5.839886E-1,4.0261418E-1,1.5754622E-1,4.150975E-1],"categories":[],"categories_nodes":[],"categories_segments":[],"categories_sizes":[],"default_left":[0,0,1,0,0,1,0,0,0,0,0,0,0,0,0,0,0,0,0,0,0,0,0,0,0,0,0,0,0,0,0,0,0,0,0,0,0,0,0],"id":2,"left_children":[1,3,5,-1,7,9,11,13,15,17,19,-1,21,-1,23,25,27,29,31,33,35,-1,37,-1,-1,-1,-1,-1,-1,-1,-1,-1,-1,-1,-1,-1,-1,-1,-1],"loss_changes":[8.200216E3,3.0303442E3,2.8638784E3,0E0,2.9955547E3,1.1094628E3,8.822383E2,1.2702466E2,2.5463652E3,1.0841682E3,6.330713E1,0E0,1.9938184E2,0E0,2.2400146E2,8.21814E1,2.2452588E3,8.6257935E1,9.219854E2,1.2268734E-1,6.3291016E1,0E0,1.6313184E2,0E0,0E0,0E0,0E0,0E0,0E0,0E0,0E0,0E0,0E0,0E0,0E0,0E0,0E0,0E0,0E0],"parents":[2147483647,0,0,1,1,2,2,4,4,5,5,6,6,7,7,8,8,9,9,10,10,12,12,14,14,15,15,16,16,17,17,18,18,19,19,20,20,22,22],"right_children":[2,4,6,-1,8,10,12,14,16,18,20,-1,22,-1,24,26,28,30,32,34,36,-1,38,-1,-1,-1,-1,-1,-1,-1,-1,-1,-1,-1,-1,-1,-1,-1,-1],"split_conditions":[3E0,2.00001E0,5E0,1.4718072E0,4.00001E0,1.26E2,2.00001E0,2E0,8.00001E0,4.00001E0,3E0,-4.385741E-1,2.00001E0,5.9888643E-1,2E0,2.00001E0,1.200001E1,4E0,3E0,4E0,2.00001E0,-5.596856E-1,4.9E1,5.440954E-1,1.2976964E0,-3.2380065E-1,5.6604874E-1,1.2207778E0,-1.0806161E-1,9.5162797E-1,5.302884E-1,5.774064E-1,3.692893E-2,-3.420154E-1,-1.181591E-1,-5.839886E-1,4.0261418E-1,1.5754622E-1,4.150975E-1],"split_indices":[632905,253134,632905,0,320057,632904,247644,596647,289951,320057,29679,0,367592,0,596552,435963,211311,632905,293164,632905,464295,0,632904,0,0,0,0,0,0,0,0,0,0,0,0,0,0,0,0],"split_type":[0,0,0,0,0,0,0,0,0,0,0,0,0,0,0,0,0,0,0,0,0,0,0,0,0,0,0,0,0,0,0,0,0,0,0,0,0,0,0],"sum_hessian":[6.9724766E4,5.1399992E4,1.8324775E4,1.1062466E2,5.1289367E4,1.4356451E4,3.9683247E3,2.5269594E2,5.103667E4,1.3371887E4,9.845648E2,1.17162926E2,3.8511616E3,7.6364204E1,1.7633173E2,5.3760614E2,5.0499066E4,1.8903928E2,1.3182847E4,1.0518598E1,9.7404626E2,1.8787865E1,3.8323738E3,5.269788E1,1.2363385E2,8.904928E0,5.2870123E2,1.13703094E2,5.0385363E4,1.06108376E2,8.29309E1,2.8946814E2,1.2893379E4,8.851241E0,1.6673568E0,5.051119E0,9.689951E2,2.3758385E2,3.59479E3],"tree_param":{"num_deleted":"0","num_feature":"632906","num_nodes":"39","size_leaf_vector":"1"}},{"base_weights":[-7.23398E-2,-2.2800037E-1,3.4406242E-1,1.7295519E-1,-3.4847218E-1,1.8058525E-1,1.0065495E0,1.5815289E0,1.5736224E-1,4.6450126E-1,-3.792182E-1,1.6571839E0,1.3921218E-1,8.1200004E-1,1.2616551E0,-3.6650163E-1,1.9636843E-1,1.9645774E0,-4.0415394E-1,-5.1503833E-2,1.6643226E0,9.644694E-1,7.112538E-2,6.4748263E-1,1.2713737E0,-8.6517245E-1,1.2768565E0,1.5363295E0,5.569763E-2,4.6293163E-1,6.160735E-1,1.3691723E0,-1.24675974E-1,5.208103E-1,4.298328E-1,1.0824858E0,2.7119827E-1,5.752403E-1,1.1045856E-2,-6.0639805E-1,2.0237863E-1,-2.724638E-1,3.8321117E-1,-7.789241E-1,3.853518E-1],"categories":[],"categories_nodes":[],"categories_segments":[],"categories_sizes":[],"default_left":[0,0,1,0,0,0,1,0,0,0,0,0,0,0,0,0,0,0,0,0,0,0,0,0,0,0,0,0,0,0,0,0,0,0,0,0,0,0,0,0,0,0,0,0,0],"id":3,"left_children":[1,3,5,7,9,11,13,-1,15,-1,17,19,21,23,25,-1,27,29,31,-1,33,35,37,39,41,-1,43,-1,-1,-1,-1,-1,-1,-1,-1,-1,-1,-1,-1,-1,-1,-1,-1,-1,-1],"loss_changes":[4.307841E3,2.3368335E3,1.9583882E3,8.8785876E2,2.1700571E3,8.859813E2,1.7660864E2,0E0,5.9972046E2,0E0,2.1402808E3,5.446411E0,7.928741E2,1.5284802E2,1.0115552E2,0E0,5.707195E2,1.1293091E1,2.0592783E3,0E0,4.052246E0,1.6869122E2,8.2573267E2,1.09844604E2,8.154602E0,0E0,4.9014893E1,0E0,0E0,0E0,0E0,0E0,0E0,0E0,0E0,0E0,0E0,0E0,0E0,0E0,0E0,0E0,0E0,0E0,0E0],"parents":[2147483647,0,0,1,1,2,2,3,3,4,4,5,5,6,6,8,8,10,10,11,11,12,12,13,13,14,14,16,16,17,17,18,18,20,20,21,21,22,22,23,23,24,24,26,26],"right_children":[2,4,6,8,10,12,14,-1,16,-1,18,20,22,24,26,-1,28,30,32,-1,34,36,38,40,42,-1,44,-1,-1,-1,-1,-1,-1,-1,-1,-1,-1,-1,-1,-1,-1,-1,-1,-1,-1],"split_conditions":[3E0,2.7E1,9.2E1,2.00001E0,4.00001E0,8.00001E0,6E0,1.5815289E0,2.00001E0,4.6450126E-1,2E0,2.00001E0,2.7E1,1.87E2,2E0,-3.6650163E-1,3E0,4.00001E0,6.00001E0,-5.1503833E-2,5E0,2.00001E0,4.00001E0,2.00001E0,2.00001E0,-8.6517245E-1,2.00001E0,1.5363295E0,5.569763E-2,4.6293163E-1,6.160735E-1,1.3691723E0,-1.24675974E-1,5.208103E-1,4.298328E-1,1.0824858E0,2.7119827E-1,5.752403E-1,1.1045856E-2,-6.0639805E-1,2.0237863E-1,-2.724638E-1,3.8321117E-1,-7.789241E-1,3.853518E-1],"split_indices":[632905,632904,632904,132238,596604,289951,632905,0,290294,0,596647,180672,632904,632904,106467,0,192863,320057,428766,0,632905,556997,596604,538396,346088,0,516591,0,0,0,0,0,0,0,0,0,0,0,0,0,0,0,0,0,0],"split_type":[0,0,0,0,0,0,0,0,0,0,0,0,0,0,0,0,0,0,0,0,0,0,0,0,0,0,0,0,0,0,0,0,0,0,0,0,0,0,0,0,0,0,0,0,0],"sum_hessian":[6.645896E4,4.8375543E4,1.808342E4,1.1176698E4,3.7198844E4,1.4505319E4,3.5781003E3,3.3048176E1,1.114365E4,5.925634E2,3.660628E4,3.9428528E2,1.4111034E4,2.0323594E3,1.545741E3,3.0569562E2,1.0837954E4,3.8453714E2,3.6221742E4,1.4434402E0,3.9284186E2,1.0744784E3,1.3036556E4,1.4982091E3,5.3415027E2,4.9579196E0,1.540783E3,2.2482382E1,1.0815472E4,7.024114E1,3.1429602E2,8.2248856E1,3.6139496E4,2.9498535E2,9.785649E1,2.2716265E1,1.0517621E3,2.368051E2,1.2799751E4,1.4327716E1,1.4838815E3,1.052757E0,5.3309753E2,2.3698647E0,1.5384132E3],"tree_param":{"num_deleted":"0","num_feature":"632906","num_nodes":"45","size_leaf_vector":"1"}},{"base_weights":[-5.5196036E-2,-1.1083049E-1,8.2491195E-1,-1.212722E0,-7.485167E-2,-1.2046217E0,9.126647E-1,-3.6157435E-1,-4.778195E-1,1.7714436E0,-9.497399E-2,2.247874E-1,-3.666452E-1,4.3613615E0,8.710146E-1,4.2159553E0,1.4501898E0,4.0522585E0,-1.0364469E-1,1.7351345E0,6.5118223E-1,4.8754015E0,8.386854E-1,3.2184726E-1,1.3128787E0,5.6875557E-1,3.9677873E-1,1.4986359E0,7.911879E-1,1.2382715E0,-3.354871E-2,1.5924342E0,4.238726E-1,-4.7651213E-2,2.9417816E-1],"categories":[],"categories_nodes":[],"categories_segments":[],"categories_sizes":[],"default_left":[1,0,0,0,0,0,0,0,0,0,0,0,0,0,0,0,0,0,0,0,0,0,1,0,0,0,0,0,0,0,0,0,0,0,0],"id":4,"left_children":[1,3,5,7,9,11,13,-1,-1,15,17,-1,-1,19,21,23,25,27,29,-1,-1,31,33,-1,-1,-1,-1,-1,-1,-1,-1,-1,-1,-1,-1],"loss_changes":[3.1191199E3,2.37517E3,6.7562354E2,3.4606934E0,2.1557212E3,6.3067474E0,5.1775195E2,0E0,0E0,4.851609E2,2.064336E3,0E0,0E0,1.2168695E2,4.605271E2,3.1653198E1,2.9020264E1,1.4667285E2,1.98394E3,0E0,0E0,3.5253174E1,5.0429346E2,0E0,0E0,0E0,0E0,0E0,0E0,0E0,0E0,0E0,0E0,0E0,0E0],"parents":[2147483647,0,0,1,1,2,2,3,3,4,4,5,5,6,6,9,9,10,10,13,13,14,14,15,15,16,16,17,17,18,18,21,21,22,22],"right_children":[2,4,6,8,10,12,14,-1,-1,16,18,-1,-1,20,22,24,26,28,30,-1,-1,32,34,-1,-1,-1,-1,-1,-1,-1,-1,-1,-1,-1,-1],"split_conditions":[1.06E2,2.00001E0,6.00001E0,4E0,3E0,2E0,2.00001E0,-3.6157435E-1,-4.778195E-1,3E0,2E0,2.247874E-1,-3.666452E-1,3E0,2.00001E0,2E0,5E0,3E0,2.00001E0,1.7351345E0,6.5118223E-1,3E0,2E0,3.2184726E-1,1.3128787E0,5.6875557E-1,3.9677873E-1,1.4986359E0,7.911879E-1,1.2382715E0,-3.354871E-2,1.5924342E0,4.238726E-1,-4.7651213E-2,2.9417816E-1],"split_indices":[632904,591297,29679,632905,348501,557590,440790,0,0,632905,381721,0,0,632905,398800,596604,632905,632905,178467,0,0,632905,632905,0,0,0,0,0,0,0,0,0,0,0,0],"split_type":[0,0,0,0,0,0,0,0,0,0,0,0,0,0,0,0,0,0,0,0,0,0,0,0,0,0,0,0,0,0,0,0,0,0,0],"sum_hessian":[6.369901E4,5.9912617E4,3.786395E3,1.8933694E3,5.8019246E4,1.5640294E2,3.6299922E3,1.8609393E3,3.243013E1,6.245818E2,5.7394664E4,1.0194522E0,1.5538348E2,4.2078888E1,3.5879133E3,7.113925E1,5.534425E2,1.1877291E2,5.727589E4,2.4519014E1,1.7559875E1,2.7535088E1,3.5603782E3,3.8254752E0,6.731378E1,1.2009948E2,4.3334305E2,6.974892E1,4.902399E1,1.0960158E2,5.716629E4,2.4002441E1,3.5326471E0,4.4340613E2,3.1169722E3],"tree_param":{"num_deleted":"0","num_feature":"632906","num_nodes":"35","size_leaf_vector":"1"}},{"base_weights":[-4.249796E-2,-1.0539714E-1,5.3585374E-1,3.7622292E0,-1.1460461E-1,3.5439724E-1,9.9639606E-1,5.979965E-1,3.9716341E0,3.1930628E0,-1.2530828E-1,-3.8915157E-1,3.9297795E-1,-6.7024004E-1,1.0191805E0,2.4351978E0,4.362756E0,4.949399E-1,3.5866807E0,4.132203E0,-1.3342251E-1,-4.728339E-1,4.1707805E-1,-2.1701512E0,1.0402354E0,6.165746E-1,1.0126736E0,1.4083815E0,7.093955E-1,3.863668E-1,1.1414921E0,3.78784E-1,1.3042513E0,4.2690864E-1,-4.59527E-2,6.938047E-2,2.1381477E-1,-4.4623885E-1,-9.3880993E-1,-6.3940376E-1,3.1643054E-1],"categories":[],"categories_nodes":[],"categories_segments":[],"categories_sizes":[],"default_left":[0,0,1,0,0,0,0,0,0,0,0,0,0,0,0,0,0,0,0,0,0,0,1,0,0,0,0,0,0,0,0,0,0,0,0,0,0,0,0,0,0],"id":5,"left_children":[1,3,5,7,9,11,13,-1,15,17,19,-1,21,-1,23,25,27,-1,29,31,33,-1,35,37,39,-1,-1,-1,-1,-1,-1,-1,-1,-1,-1,-1,-1,-1,-1,-1,-1],"loss_changes":[2.2581877E3,1.9941653E3,5.084889E2,4.134778E1,1.9778788E3,2.7892786E2,1.2891223E2,0E0,6.023291E1,1.0354675E2,1.9239346E3,0E0,2.0331586E2,0E0,1.1702344E2,2.4195404E0,5.0380493E1,0E0,6.67218E1,5.9962524E1,1.7087169E3,0E0,2.3163177E2,2.8973389E0,8.053882E1,0E0,0E0,0E0,0E0,0E0,0E0,0E0,0E0,0E0,0E0,0E0,0E0,0E0,0E0,0E0,0E0],"parents":[2147483647,0,0,1,1,2,2,3,3,4,4,5,5,6,6,8,8,9,9,10,10,12,12,14,14,15,15,16,16,18,18,19,19,20,20,22,22,23,23,24,24],"right_children":[2,4,6,8,10,12,14,-1,16,18,20,-1,22,-1,24,26,28,-1,30,32,34,-1,36,38,40,-1,-1,-1,-1,-1,-1,-1,-1,-1,-1,-1,-1,-1,-1,-1,-1],"split_conditions":[4E0,2.00001E0,6E0,2E0,3E0,2.00001E0,2.00001E0,5.979965E-1,2E0,2E0,2.00001E0,-3.8915157E-1,2.00001E0,-6.7024004E-1,2.00001E0,3E0,1.06E2,4.949399E-1,2E0,2E0,8.00001E0,-4.728339E-1,6.5E1,2.00001E0,2E0,6.165746E-1,1.0126736E0,1.4083815E0,7.093955E-1,3.863668E-1,1.1414921E0,3.78784E-1,1.3042513E0,4.2690864E-1,-4.59527E-2,6.938047E-2,2.1381477E-1,-4.4623885E-1,-9.3880993E-1,-6.3940376E-1,3.1643054E-1],"split_indices":[632905,291192,632905,320057,186814,247644,169401,0,596552,596647,350744,0,582693,0,136192,632905,632904,0,596604,596604,289951,0,632904,367592,106467,0,0,0,0,0,0,0,0,0,0,0,0,0,0,0,0],"split_type":[0,0,0,0,0,0,0,0,0,0,0,0,0,0,0,0,0,0,0,0,0,0,0,0,0,0,0,0,0,0,0,0,0,0,0,0,0,0,0,0,0],"sum_hessian":[6.2073355E4,5.5985426E4,6.08793E3,1.3199707E2,5.585343E4,4.3684883E3,1.7194417E3,1.5085364E1,1.1691171E2,1.7920053E2,5.5674227E4,9.897395E1,4.2695146E3,1.1362369E1,1.7080792E3,2.518887E1,9.172284E1,3.747259E1,1.4172794E2,1.0493891E2,5.556929E4,5.0844948E1,4.2186694E3,1.0532737E1,1.6975465E3,2.0209154E1,4.979716E0,7.750168E1,1.4221163E1,1.2889666E1,1.2883827E2,7.8029943E0,9.713592E1,6.955099E2,5.487378E4,2.5916113E3,1.6270582E3,7.6434684E0,2.8892684E0,7.078776E0,1.6904678E3],"tree_param":{"num_deleted":"0","num_feature":"632906","num_nodes":"41","size_leaf_vector":"1"}},{"base_weights":[-3.1433977E-2,1.5766591E0,-5.106711E-2,1.8429068E0,1.2561178E0,-1.142138E0,-2.4319792E-2,-3.6348814E-1,1.863152E0,3.417619E-1,3.991889E-1,-3.4075177E-1,-4.2033347E-1,1.4009326E0,-4.4001378E-2,4.058772E-1,1.999967E0,1.421004E0,3.6668783E-1,3.8494895E0,-5.1176947E-2,-2.8907263E-1,6.0448825E-1,4.1058853E-1,4.5332128E-1,1.4220228E0,7.3967296E-1,1.2396001E0,-1.7351143E-2],"categories":[],"categories_nodes":[],"categories_segments":[],"categories_sizes":[],"default_left":[0,0,0,0,0,0,0,0,0,0,0,0,0,0,0,0,0,0,0,0,0,0,0,0,0,0,0,0,0],"id":6,"left_children":[1,3,5,7,9,11,13,-1,15,-1,-1,-1,-1,17,19,-1,21,23,-1,25,27,-1,-1,-1,-1,-1,-1,-1,-1],"loss_changes":[1.9022689E3,5.970752E1,1.7370642E3,2.6675049E1,1.3840332E0,7.319336E-1,1.6298485E3,0E0,2.4703491E1,0E0,0E0,0E0,0E0,1.1008301E0,1.6013231E3,0E0,1.5606567E1,1.2591553E0,0E0,1.1826611E2,1.5940292E3,0E0,0E0,0E0,0E0,0E0,0E0,0E0,0E0],"parents":[2147483647,0,0,1,1,2,2,3,3,4,4,5,5,6,6,8,8,13,13,14,14,16,16,17,17,19,19,20,20],"right_children":[2,4,6,8,10,12,14,-1,16,-1,-1,-1,-1,18,20,-1,22,24,-1,26,28,-1,-1,-1,-1,-1,-1,-1,-1],"split_conditions":[4.00001E0,4E0,2.00001E0,2.00001E0,2E0,4E0,4.00001E0,-3.6348814E-1,2E0,3.417619E-1,3.991889E-1,-3.4075177E-1,-4.2033347E-1,1.12E2,4.00001E0,4.058772E-1,2.00001E0,3E0,3.6668783E-1,3E0,8.00001E0,-2.8907263E-1,6.0448825E-1,4.1058853E-1,4.5332128E-1,1.4220228E0,7.3967296E-1,1.2396001E0,-1.7351143E-2],"split_indices":[320057,632905,591297,622693,348501,632905,596604,0,596647,0,0,0,0,632904,87211,0,584315,632905,0,632905,463005,0,0,0,0,0,0,0,0],"split_type":[0,0,0,0,0,0,0,0,0,0,0,0,0,0,0,0,0,0,0,0,0,0,0,0,0,0,0,0,0],"sum_hessian":[6.0248395E4,7.2574115E2,5.9522652E4,3.9385135E2,3.318898E2,1.4232689E3,5.8099383E4,2.20577E0,3.9164557E2,1.3552907E2,1.9636073E2,1.3947314E3,2.8537428E1,7.904214E2,5.730896E4,8.511445E1,3.0653113E2,7.043304E2,8.609098E1,1.0443909E2,5.7204523E4,1.2245902E0,3.0530655E2,4.5559088E2,2.487395E2,6.2070114E1,4.2368973E1,8.994813E1,5.7114574E4],"tree_param":{"num_deleted":"0","num_feature":"632906","num_nodes":"29","size_leaf_vector":"1"}},{"base_weights":[-2.3235489E-2,-5.2578665E-2,8.783716E-1,1.319655E0,-7.274092E-2,-3.4882104E-1,9.2059565E-1,-1.1031455E0,1.4959444E0,1.9793093E-1,-1.8552183E-1,-1.8011267E0,9.4888103E-1,6.865639E-1,-1.468613E0,1.7081256E0,6.946443E-1,5.7680635E0,1.8936916E-1,-4.9841157E-1,-5.4820307E-2,-6.7217684E-1,-4.2320096E-1,-1.6218183E0,9.7751224E-1,-4.6851876E-1,3.4132263E-1,-3.942233E-1,5.3082585E-1,-3.4036887E-1,2.4070619E-1,1.8174852E0,-5.5606823E-2,-3.5633263E-1,6.563665E-2,1.8601283E0,-1.5290385E-1,1.8709496E0,-1.8574223E-2,-3.7526944E-1,-8.388926E-1,-3.1739268E-1,3.0292168E-1],"categories":[],"categories_nodes":[],"categories_segments":[],"categories_sizes":[],"default_left":[1,0,0,0,0,0,0,0,0,0,1,0,0,0,0,0,0,0,0,0,0,0,0,0,0,0,0,0,0,0,0,0,0,0,0,0,0,0,0,0,0,0,0],"id":7,"left_children":[1,3,5,7,9,-1,11,13,15,17,19,21,23,-1,25,27,29,31,33,35,37,-1,-1,39,41,-1,-1,-1,-1,-1,-1,-1,-1,-1,-1,-1,-1,-1,-1,-1,-1,-1,-1],"loss_changes":[1.5657217E3,1.5858739E3,1.6183765E2,3.5615564E2,1.7243914E3,0E0,1.4244885E2,7.385734E1,1.3043152E2,7.912512E2,1.6306075E3,1.24996185E-1,1.3480554E2,0E0,1.4384628E1,1.1557727E2,3.3174103E1,4.5120728E1,6.7240265E2,8.8994946E2,1.2556329E3,0E0,0E0,5.35128E0,1.1853162E2,0E0,0E0,0E0,0E0,0E0,0E0,0E0,0E0,0E0,0E0,0E0,0E0,0E0,0E0,0E0,0E0,0E0,0E0],"parents":[2147483647,0,0,1,1,2,2,3,3,4,4,6,6,7,7,8,8,9,9,10,10,11,11,12,12,14,14,15,15,16,16,17,17,18,18,19,19,20,20,23,23,24,24],"right_children":[2,4,6,8,10,-1,12,14,16,18,20,22,24,-1,26,28,30,32,34,36,38,-1,-1,40,42,-1,-1,-1,-1,-1,-1,-1,-1,-1,-1,-1,-1,-1,-1,-1,-1,-1,-1],"split_conditions":[1.33E2,5E0,6.00001E0,2.00001E0,3.1E1,-3.4882104E-1,2.00001E0,3E0,6.3E1,2.00001E0,2E0,5E0,1.000001E1,6.865639E-1,7.4E1,2.00001E0,2E0,2E0,2.00001E0,2.00001E0,2.00001E0,-6.7217684E-1,-4.2320096E-1,3E0,2E0,-4.6851876E-1,3.4132263E-1,-3.942233E-1,5.3082585E-1,-3.4036887E-1,2.4070619E-1,1.8174852E0,-5.5606823E-2,-3.5633263E-1,6.563665E-2,1.8601283E0,-1.5290385E-1,1.8709496E0,-1.8574223E-2,-3.7526944E-1,-8.388926E-1,-3.1739268E-1,3.0292168E-1],"split_indices":[632904,293164,29679,104377,632904,0,346088,104127,632904,235060,632905,632905,28936,0,632904,320591,29679,632905,542876,342753,25109,0,0,632905,399753,0,0,0,0,0,0,0,0,0,0,0,0,0,0,0,0,0,0],"split_type":[0,0,0,0,0,0,0,0,0,0,0,0,0,0,0,0,0,0,0,0,0,0,0,0,0,0,0,0,0,0,0,0,0,0,0,0,0,0,0,0,0,0,0],"sum_hessian":[5.917932E4,5.731492E4,1.8643964E3,8.2900165E2,5.648592E4,3.7248913E1,1.8271475E3,5.5872383E1,7.731292E2,1.6613385E4,3.9872535E4,1.8148571E1,1.8089989E3,4.9229913E0,5.094939E1,6.1037305E2,1.6275616E2,2.44646E1,1.658892E4,1.1747376E4,2.812516E4,6.309169E0,1.1839403E1,1.931294E1,1.7896859E3,4.9578907E1,1.3704848E0,1.17267275E1,5.9864636E2,8.520529E0,1.5423563E2,2.3310627E1,1.1539719E0,3.4614996E2,1.62427705E4,1.8804337E1,1.1728571E4,3.0687725E1,2.8094473E4,1.6246977E1,3.0659628E0,2.739729E1,1.7622887E3],"tree_param":{"num_deleted":"0","num_feature":"632906","num_nodes":"43","size_leaf_vector":"1"}},{"base_weights":[-1.9815773E-2,3.4992917E0,-2.7274122E-2,4.2477965E0,1.5675378E0,3.7813382E0,-3.3969834E-2,4.5212054E0,2.1154852E0,6.3210934E-1,3.4869218E-1,5.143085E0,2.5605843E0,2.0316634E0,-4.5606468E-2,3.3987394E-1,4.6748066E0,2.380837E-1,2.2617793E0,3.3458894E-1,5.5000916E0,3.2432158E0,4.291043E-1,4.0160456E-1,2.1477373E0,4.0054407E0,-5.1383305E-2,3.074371E-1,1.4290605E0,7.514533E-1,3.2309908E-1,1.7213873E0,5.1015973E-1,2.8221136E-1,1.0099549E0,3.7090033E-1,6.6645616E-1,1.5795969E0,7.9203796E-1,3.6385417E-1,-2.0983152E-2],"categories":[],"categories_nodes":[],"categories_segments":[],"categories_sizes":[],"default_left":[0,0,0,0,0,0,0,0,0,0,0,0,0,0,0,0,0,0,0,0,0,0,0,0,0,0,0,0,0,0,0,0,0,0,0,0,0,0,0,0,0],"id":8,"left_children":[1,3,5,7,9,11,13,15,17,-1,-1,19,21,23,25,-1,27,-1,29,-1,31,33,-1,-1,35,37,39,-1,-1,-1,-1,-1,-1,-1,-1,-1,-1,-1,-1,-1,-1],"loss_changes":[1.530482E3,1.716576E2,1.4839346E3,4.1912598E1,5.426689E0,1.5659363E2,1.3962646E3,3.4978027E1,5.090561E-1,0E0,0E0,6.185437E1,3.8443695E1,2.3299316E1,1.3519155E3,0E0,1.8989258E1,0E0,2.3583221E-1,0E0,2.9265747E1,6.4927063E0,0E0,0E0,1.5884888E1,1.2759985E2,1.3535006E3,0E0,0E0,0E0,0E0,0E0,0E0,0E0,0E0,0E0,0E0,0E0,0E0,0E0,0E0],"parents":[2147483647,0,0,1,1,2,2,3,3,4,4,5,5,6,6,7,7,8,8,11,11,12,12,13,13,14,14,16,16,18,18,20,20,21,21,24,24,25,25,26,26],"right_children":[2,4,6,8,10,12,14,16,18,-1,-1,20,22,24,26,-1,28,-1,30,-1,32,34,-1,-1,36,38,40,-1,-1,-1,-1,-1,-1,-1,-1,-1,-1,-1,-1,-1,-1],"split_conditions":[2.00001E0,4E0,3E0,9.5E1,7.6E1,3E0,4.00001E0,2E0,2E0,6.3210934E-1,3.4869218E-1,2E0,7.9E1,4.00001E0,4.00001E0,3.3987394E-1,2E0,2.380837E-1,1.42E2,3.3458894E-1,9.9E1,2E0,4.291043E-1,4.0160456E-1,2E0,3E0,8.00001E0,3.074371E-1,1.4290605E0,7.514533E-1,3.2309908E-1,1.7213873E0,5.1015973E-1,2.8221136E-1,1.0099549E0,3.7090033E-1,6.6645616E-1,1.5795969E0,7.9203796E-1,3.6385417E-1,-2.0983152E-2],"split_indices":[290339,632905,523402,632904,632904,632905,596552,289951,440911,0,0,289951,632904,320057,341507,0,320057,0,632904,0,632904,289951,0,0,289951,632905,289951,0,0,0,0,0,0,0,0,0,0,0,0,0,0],"split_type":[0,0,0,0,0,0,0,0,0,0,0,0,0,0,0,0,0,0,0,0,0,0,0,0,0,0,0,0,0,0,0,0,0,0,0,0,0,0,0,0,0],"sum_hessian":[5.8306688E4,1.2232295E2,5.8184363E4,8.72982E1,3.5024754E1,1.0112184E2,5.8083242E4,7.638381E1,1.0914387E1,1.3222167E1,2.1802586E1,4.628171E1,5.484013E1,3.2440338E2,5.775884E4,3.675764E0,7.2708046E1,1.727745E0,9.186642E0,4.1039944E0,4.2177715E1,3.302466E1,2.1815472E1,4.8339714E1,2.7606366E2,8.126155E1,5.767758E4,2.0233414E0,7.068471E1,6.6982727E0,2.488369E0,3.92127E1,2.9650152E0,2.1172109E0,3.0907446E1,2.2004936E1,2.5405873E2,4.0776962E1,4.0484585E1,8.335981E2,5.684398E4],"tree_param":{"num_deleted":"0","num_feature":"632906","num_nodes":"41","size_leaf_vector":"1"}},{"base_weights":[-1.4946075E-2,-3.296037E-1,5.45456E-3,-1.152072E0,2.52242E-2,3.498522E-1,-1.1708932E0,4.9296746E0,2.0847837E-2,3.8657343E-1,-1.1783822E0,2.3048015E-1,5.0368676E0,1.602654E0,7.439485E-3,-4.2726472E-2,-3.5381812E-1,1.7420744E0,1.1986909E0,3.7456292E-1,5.024194E-1,4.2924565E-1,-2.0234E-3],"categories":[],"categories_nodes":[],"categories_segments":[],"categories_sizes":[],"default_left":[0,0,0,0,0,0,0,0,0,0,0,0,0,0,0,0,0,0,0,0,0,0,0],"id":9,"left_children":[1,-1,3,5,7,-1,9,11,13,-1,15,-1,17,19,21,-1,-1,-1,-1,-1,-1,-1,-1],"loss_changes":[1.2731116E3,0E0,1.2934398E3,4.277832E1,1.1926853E3,0E0,1.8869019E1,1.8229126E1,1.1776179E3,0E0,8.1677246E-1,0E0,1.5376953E1,9.820679E0,1.1116039E3,0E0,0E0,0E0,0E0,0E0,0E0,0E0,0E0],"parents":[2147483647,0,0,2,2,3,3,4,4,6,6,7,7,8,8,10,10,12,12,13,13,14,14],"right_children":[2,-1,4,6,8,-1,10,12,14,-1,16,-1,18,20,22,-1,-1,-1,-1,-1,-1,-1,-1],"split_conditions":[2.00001E0,-3.296037E-1,6.00001E0,2E0,2.00001E0,3.498522E-1,2.00001E0,2E0,4.00001E0,3.8657343E-1,2.4E1,2.3048015E-1,3E0,4.00001E0,8.00001E0,-4.2726472E-2,-3.5381812E-1,1.7420744E0,1.1986909E0,3.7456292E-1,5.024194E-1,4.2924565E-1,-2.0234E-3],"split_indices":[591297,0,29679,596604,87230,0,557547,289951,596647,0,632904,0,632905,320057,348501,0,0,0,0,0,0,0,0],"split_type":[0,0,0,0,0,0,0,0,0,0,0,0,0,0,0,0,0,0,0,0,0,0,0],"sum_hessian":[5.7582555E4,1.0629534E3,5.65196E4,9.481385E2,5.5571465E4,7.144758E0,9.409938E2,4.8540234E1,5.552292E4,2.3372886E0,9.386565E2,1.4240373E0,4.7116196E1,4.6569385E2,5.505723E4,1.0538577E0,9.376026E2,2.4454105E1,2.2662092E1,8.185724E1,3.838366E2,5.4225323E2,5.4514977E4],"tree_param":{"num_deleted":"0","num_feature":"632906","num_nodes":"23","size_leaf_vector":"1"}},{"base_weights":[-1.1700071E-2,2.5972466E0,-1.9280817E-2,-2.9823196E-1,2.7284422E0,1.9683735E0,-2.9151168E-2,-2.8236097E-1,2.814625E0,3.8135546E-1,3.3494573E0,2.8372517E0,-3.5831578E-2,3.1060767E0,1.5613654E0,4.3888574E0,2.4102108E0,-3.4267515E-1,3.1309478E0,6.9498336E-1,-4.3748453E-2,5.721252E-1,1.0816087E0,5.353512E-1,2.5184035E-1,2.9664612E-1,1.4283053E0,7.935496E-1,3.2868165E-1,-3.07166E-1,1.0080812E0,4.0378356E-1,-1.7174596E-2],"categories":[],"categories_nodes":[],"categories_segments":[],"categories_sizes":[],"default_left":[0,0,0,0,0,0,0,0,0,0,0,0,0,0,0,0,0,0,0,0,0,0,0,0,0,0,0,0,0,0,0,0,0],"id":10,"left_children":[1,3,5,-1,7,9,11,-1,13,-1,15,17,19,21,23,25,27,-1,29,-1,31,-1,-1,-1,-1,-1,-1,-1,-1,-1,-1,-1,-1],"loss_changes":[1.125296E3,8.038245E1,1.1130475E3,0E0,5.3030273E1,2.6567236E2,1.0810739E3,0E0,5.209424E1,0E0,8.063513E1,1.5700171E2,1.0490245E3,6.823706E1,3.5640259E0,4.9871033E1,1.2946716E1,0E0,1.2017395E2,0E0,1.0531985E3,0E0,0E0,0E0,0E0,0E0,0E0,0E0,0E0,0E0,0E0,0E0,0E0],"parents":[2147483647,0,0,1,1,2,2,4,4,5,5,6,6,8,8,10,10,11,11,12,12,13,13,14,14,15,15,16,16,18,18,20,20],"right_children":[2,4,6,-1,8,10,12,-1,14,-1,16,18,20,22,24,26,28,-1,30,-1,32,-1,-1,-1,-1,-1,-1,-1,-1,-1,-1,-1,-1],"split_conditions":[6.00001E0,2.00001E0,4.00001E0,-2.9823196E-1,2.00001E0,4.00001E0,2E0,-2.8236097E-1,7.3E1,3.8135546E-1,3E0,2.00001E0,2.00001E0,2.7E1,4E0,4.00001E0,1.09E2,-3.4267515E-1,2E0,6.9498336E-1,4.00001E0,5.721252E-1,1.0816087E0,5.353512E-1,2.5184035E-1,2.9664612E-1,1.4283053E0,7.935496E-1,3.2868165E-1,-3.07166E-1,1.0080812E0,4.0378356E-1,-1.7174596E-2],"split_indices":[192863,301904,440911,0,607203,596604,528600,0,632904,0,632905,277691,426874,632904,632905,320057,632904,0,516895,0,320057,0,0,0,0,0,0,0,0,0,0,0,0],"split_type":[0,0,0,0,0,0,0,0,0,0,0,0,0,0,0,0,0,0,0,0,0,0,0,0,0,0,0,0,0,0,0,0,0],"sum_hessian":[5.6893508E4,1.6384523E2,5.6729664E4,5.542665E0,1.5830257E2,2.793373E2,5.645033E4,3.4048262E0,1.5489774E2,1.8690547E2,9.243184E1,1.3027145E2,5.6320055E4,1.2447261E2,3.0425121E1,4.2133175E1,5.029866E1,8.754957E0,1.215165E2,1.8792485E2,5.613213E4,3.8011288E1,8.646133E1,2.2116842E1,8.30828E0,4.5175967E0,3.761558E1,4.1813377E1,8.485281E0,6.1749434E0,1.1534156E2,5.391005E2,5.559303E4],"tree_param":{"num_deleted":"0","num_feature":"632906","num_nodes":"33","size_leaf_vector":"1"}},{"base_weights":[-8.455607E-3,-1.1686617E0,7.695176E-3,2.4967319E-1,-3.5292363E-1,-3.44351E-1,2.4237113E-2,4.272019E0,1.9880606E-2,4.6960516E0,1.9916761E0,-3.204645E-1,3.5927176E-2,2.8094223E-1,1.4747651E0,8.838407E-1,3.1667373E-1,1.1539056E0,9.416255E-3],"categories":[],"categories_nodes":[],"categories_segments":[],"categories_sizes":[],"default_left":[0,0,0,0,0,0,0,0,0,0,0,0,0,0,0,0,0,0,0],"id":11,"left_children":[1,3,5,-1,-1,-1,7,9,11,13,15,-1,17,-1,-1,-1,-1,-1,-1],"loss_changes":[1.0547023E3,1.2963135E1,1.0611599E3,0E0,0E0,0E0,1.0127449E3,4.4863464E1,9.546967E2,3.3862183E1,6.296501E0,0E0,9.319429E2,0E0,0E0,0E0,0E0,0E0,0E0],"parents":[2147483647,0,0,1,1,2,2,6,6,7,7,8,8,9,9,10,10,12,12],"right_children":[2,4,6,-1,-1,-1,8,10,12,14,16,-1,18,-1,-1,-1,-1,-1,-1],"split_conditions":[2.00001E0,2E0,2.00001E0,2.4967319E-1,-3.5292363E-1,-3.44351E-1,2E0,3E0,2.00001E0,2E0,2E0,-3.204645E-1,2.00001E0,2.8094223E-1,1.4747651E0,8.838407E-1,3.1667373E-1,1.1539056E0,9.416255E-3],"split_indices":[230941,102720,629646,0,0,0,206130,632905,591297,596604,112593,0,557547,0,0,0,0,0,0],"split_type":[0,0,0,0,0,0,0,0,0,0,0,0,0,0,0,0,0,0,0],"sum_hessian":[5.6284613E4,7.717794E2,5.5512832E4,2.567415E0,7.69212E2,7.825093E2,5.4730324E4,5.5070015E1,5.4675254E4,4.5542053E1,9.527959E0,7.936461E2,5.3881605E4,2.8064232E0,4.273563E1,3.6545088E0,5.8734503E0,6.3110027E1,5.3818496E4],"tree_param":{"num_deleted":"0","num_feature":"632906","num_nodes":"19","size_leaf_vector":"1"}},{"base_weights":[-8.174909E-3,3.7595823E-1,-2.192016E-2,2.738219E0,-2.823515E-2,3.954201E0,1.3141218E0,2.3825103E-1,-9.379493E-2,4.285987E0,4.510523E-1,1.8853619E0,3.344947E-1,-3.6585242E-1,2.7349484E-1,-3.6080533E-1,8.3381515E-3,7.090984E-1,1.5243375E0,1.958137E-1,5.900442E-1,-3.654883E-1,9.0831265E-2,2.0820458E0,-1.1013388E-1,1.1302799E0,3.073684E-4],"categories":[],"categories_nodes":[],"categories_segments":[],"categories_sizes":[],"default_left":[0,0,0,0,0,0,0,0,0,0,0,0,0,0,0,0,0,0,0,0,0,0,0,0,0,0,0],"id":12,"left_children":[1,-1,3,5,7,9,11,13,15,17,-1,19,-1,-1,21,23,25,-1,-1,-1,-1,-1,-1,-1,-1,-1,-1],"loss_changes":[9.71327E2,0E0,9.660457E2,2.1388733E2,9.6604333E2,4.8641113E1,4.696953E0,5.6124414E2,1.2101902E3,7.83678E1,0E0,1.2212753E-1,0E0,0E0,4.6595795E2,5.6796814E2,8.825419E2,0E0,0E0,0E0,0E0,0E0,0E0,0E0,0E0,0E0,0E0],"parents":[2147483647,0,0,2,2,3,3,4,4,5,5,6,6,7,7,8,8,9,9,11,11,14,14,15,15,16,16],"right_children":[2,-1,4,6,8,10,12,14,16,18,-1,20,-1,-1,22,24,26,-1,-1,-1,-1,-1,-1,-1,-1,-1,-1],"split_conditions":[4.00001E0,3.7595823E-1,6.00001E0,1.26E2,2.6E1,4E0,3E0,2.00001E0,2E0,2E0,4.510523E-1,2E0,3.344947E-1,-3.6585242E-1,2.00001E0,2.00001E0,2.00001E0,7.090984E-1,1.5243375E0,1.958137E-1,5.900442E-1,-3.654883E-1,9.0831265E-2,2.0820458E0,-1.1013388E-1,1.1302799E0,3.073684E-4],"split_indices":[596604,0,490146,632904,632904,632905,632905,392423,632905,87211,0,289951,0,0,392809,625778,183984,0,0,0,0,0,0,0,0,0,0],"split_type":[0,0,0,0,0,0,0,0,0,0,0,0,0,0,0,0,0,0,0,0,0,0,0,0,0,0,0],"sum_hessian":[5.602097E4,6.0291284E2,5.5418055E4,1.2551541E2,5.529254E4,6.674651E1,5.8768906E1,1.0916543E4,4.4375996E4,5.8127987E1,8.618524E0,1.300266E1,4.5766243E1,2.5690268E2,1.065964E4,1.2277064E4,3.2098934E4,1.8170822E1,3.9957165E1,1.3646253E0,1.1638035E1,2.0438501E2,1.0455255E4,9.64855E0,1.2267416E4,6.1328438E1,3.2037604E4],"tree_param":{"num_deleted":"0","num_feature":"632906","num_nodes":"27","size_leaf_vector":"1"}},{"base_weights":[-7.6198545E-3,2.1271422E0,-1.5777826E-2,1.4025912E0,1.9746678E0,4.546914E0,-1.9446693E-2,2.2783504E0,3.7348732E-1,1.384726E0,3.9326954E-1,2.2574182E0,-2.6548985E-2,3.1864464E-1,2.3354366E0,2.3033772E0,3.4586117E-1,1.3456653E0,-3.7922826E-2,7.204951E-1,3.9682063E-1,4.632918E-1,7.16693E-1,6.0759676E-1,2.865497E-1,-1.8978266E-2,1.744506E-1],"categories":[],"categories_nodes":[],"categories_segments":[],"categories_sizes":[],"default_left":[0,0,0,0,0,0,0,0,0,0,0,0,0,0,0,0,0,0,1,0,0,0,0,0,0,0,0],"id":13,"left_children":[1,3,5,-1,7,9,11,13,-1,-1,-1,15,17,-1,19,21,-1,23,25,-1,-1,-1,-1,-1,-1,-1,-1],"loss_changes":[9.6622784E2,7.283099E1,9.252913E2,0E0,4.1709778E1,3.8423462E0,8.931156E2,7.2910156E0,0E0,0E0,0E0,6.0629272E0,8.593159E2,0E0,5.781616E0,6.9589844E0,0E0,1.1819092E2,8.5704065E2,0E0,0E0,0E0,0E0,0E0,0E0,0E0,0E0],"parents":[2147483647,0,0,1,1,2,2,4,4,5,5,6,6,7,7,11,11,12,12,14,14,15,15,17,17,18,18],"right_children":[2,4,6,-1,8,10,12,14,-1,-1,-1,16,18,-1,20,22,-1,24,26,-1,-1,-1,-1,-1,-1,-1,-1],"split_conditions":[6.00001E0,2.7E1,2.00001E0,1.4025912E0,1.15E2,6.9E1,1.200001E1,2E0,3.7348732E-1,1.384726E0,3.9326954E-1,8.3E1,2.00001E0,3.1864464E-1,5E0,2E0,3.4586117E-1,3E0,5E0,7.204951E-1,3.9682063E-1,4.632918E-1,7.16693E-1,6.0759676E-1,2.865497E-1,-1.8978266E-2,1.744506E-1],"split_indices":[428766,632904,381709,0,632904,632904,211311,596604,0,0,0,632904,292561,0,632905,293164,0,632905,632905,0,0,0,0,0,0,0,0],"split_type":[0,0,0,0,0,0,0,0,0,0,0,0,0,0,0,0,0,0,0,0,0,0,0,0,0,0,0],"sum_hessian":[5.5478523E4,2.1021469E2,5.526831E4,1.0193725E1,2.0002097E2,4.341066E1,5.52249E4,1.3974234E2,6.0278633E1,4.208894E1,1.32172E0,1.7074371E2,5.5054152E4,7.1441846E0,1.3259814E2,1.6288107E2,7.8626313E0,4.516104E2,5.4602543E4,1.2317315E2,9.424999E0,1.8436104E1,1.4444498E2,1.632648E2,2.883456E2,5.245762E4,2.144922E3],"tree_param":{"num_deleted":"0","num_feature":"632906","num_nodes":"27","size_leaf_vector":"1"}},{"base_weights":[-5.656857E-3,3.8125768E0,-9.728669E-3,5.6838846E-1,4.603815E0,-1.0936531E0,4.268199E-3,4.731588E0,4.6332654E-1,2.8465882E-1,-1.1079324E0,3.5851736E0,7.330018E-5,2.5741223E-1,4.8143883E0,2.0628166E-1,-1.1118025E0,3.965711E0,5.5558974E-1,-1.9079007E-2,7.7195334E-1,2.7391154E-1,1.4701064E0,-1.881661E-1,-3.347943E-1,1.2818685E0,4.6601552E-1,4.9333435E-1,-8.371791E-3,1.4176765E-1,3.132153E-1],"categories":[],"categories_nodes":[],"categories_segments":[],"categories_sizes":[],"default_left":[0,0,0,0,0,0,0,0,0,0,0,0,1,0,0,0,0,0,0,0,0,0,0,0,0,0,0,0,0,0,0],"id":14,"left_children":[1,3,5,-1,7,9,11,13,-1,-1,15,17,19,-1,21,-1,23,25,-1,27,29,-1,-1,-1,-1,-1,-1,-1,-1,-1,-1],"loss_changes":[8.5227405E2,7.989819E1,8.307828E2,0E0,8.579956E0,2.1411682E1,8.120918E2,8.226318E0,0E0,0E0,5.585022E0,3.4377075E1,7.983061E2,0E0,8.104492E0,0E0,7.023926E-1,3.1149658E1,0E0,7.737862E2,1.0601752E2,0E0,0E0,0E0,0E0,0E0,0E0,0E0,0E0,0E0,0E0],"parents":[2147483647,0,0,1,1,2,2,4,4,5,5,6,6,7,7,10,10,11,11,12,12,14,14,16,16,17,17,19,19,20,20],"right_children":[2,4,6,-1,8,10,12,14,-1,-1,16,18,20,-1,22,-1,24,26,-1,28,30,-1,-1,-1,-1,-1,-1,-1,-1,-1,-1],"split_conditions":[4.00001E0,2.00001E0,6.00001E0,5.6838846E-1,4E0,2E0,2.00001E0,2E0,4.6332654E-1,2.8465882E-1,2.00001E0,4E0,1.42E2,2.5741223E-1,2E0,2.0628166E-1,3.8E1,1.26E2,5.5558974E-1,4.00001E0,1.87E2,2.7391154E-1,1.4701064E0,-1.881661E-1,-3.347943E-1,1.2818685E0,4.6601552E-1,4.9333435E-1,-8.371791E-3,1.4176765E-1,3.132153E-1],"split_indices":[425012,87230,29679,0,632905,596604,541107,186814,0,0,557547,632905,632904,0,348501,0,632904,632904,0,596552,632904,0,0,0,0,0,0,0,0,0,0],"split_type":[0,0,0,0,0,0,0,0,0,0,0,0,0,0,0,0,0,0,0,0,0,0,0,0,0,0,0,0,0,0,0],"sum_hessian":[5.481535E4,5.7397118E1,5.4757953E4,1.7754646E1,3.964247E1,6.970993E2,5.406085E4,3.7528545E1,2.1139243E0,4.385218E0,6.927141E2,6.2257347E1,5.3998598E4,1.0232204E0,3.6505325E1,1.1098632E0,6.9160425E2,4.9992973E1,1.2264374E1,5.2692145E4,1.3064508E3,1.0375991E0,3.5467728E1,7.20447E0,6.843998E2,4.3661835E1,6.3311415E0,2.771399E2,5.2415004E4,6.2332745E2,6.8312335E2],"tree_param":{"num_deleted":"0","num_feature":"632906","num_nodes":"31","size_leaf_vector":"1"}},{"base_weights":[-4.413634E-3,1.8014034E0,-1.233648E-2,-3.2835692E-1,2.0976076E0,2.4970353E0,-1.8047564E-2,2.5928547E0,1.367173E0,3.7124593E0,1.9242071E0,5.3021894E0,-2.06371E-2,3.402088E-1,2.8619854E0,1.7234044E0,1.0142952E0,3.9967284E0,5.923708E-1,2.2071784E0,3.5333908E-1,1.915936E0,7.1503663E-1,2.0281498E0,-2.732327E-2,3.604068E-1,9.3457687E-1,2.9717985E-1,5.379411E-1,3.40802E-1,2.0052733E-1,2.4701865E-1,1.2469043E0,3.004173E-1,6.98645E-1,5.945345E-1,8.57851E-1,7.79E-1,-9.772722E-3],"categories":[],"categories_nodes":[],"categories_segments":[],"categories_sizes":[],"default_left":[0,0,0,0,0,0,0,0,0,0,0,0,0,0,0,0,0,0,0,0,0,0,0,0,0,0,0,0,0,0,0,0,0,0,0,0,0,0,0],"id":15,"left_children":[1,3,5,-1,7,9,11,13,15,17,19,21,23,-1,25,27,29,31,-1,33,-1,-1,-1,35,37,-1,-1,-1,-1,-1,-1,-1,-1,-1,-1,-1,-1,-1,-1],"loss_changes":[7.767732E2,2.0573029E2,7.747156E2,0E0,7.4410706E1,7.8319275E1,7.4314105E2,4.6737854E1,9.463608E0,1.1002075E1,1.5460419E1,6.782587E1,7.385124E2,0E0,4.1186462E1,4.1866302E-1,1.2291374E0,1.2731689E1,0E0,6.5938416E0,0E0,0E0,0E0,1.0932007E0,7.406602E2,0E0,0E0,0E0,0E0,0E0,0E0,0E0,0E0,0E0,0E0,0E0,0E0,0E0,0E0],"parents":[2147483647,0,0,1,1,2,2,4,4,5,5,6,6,7,7,8,8,9,9,10,10,11,11,12,12,14,14,15,15,16,16,17,17,19,19,23,23,24,24],"right_children":[2,4,6,-1,8,10,12,14,16,18,20,22,24,-1,26,28,30,32,-1,34,-1,-1,-1,36,38,-1,-1,-1,-1,-1,-1,-1,-1,-1,-1,-1,-1,-1,-1],"split_conditions":[1.800001E1,2E0,4.00001E0,-3.2835692E-1,4E0,6.4E1,2.00001E0,2E0,5E0,4E0,4E0,3E0,2.00001E0,3.402088E-1,2E0,2E0,1.06E2,2E0,5.923708E-1,2E0,3.5333908E-1,1.915936E0,7.1503663E-1,3E0,4.00001E0,3.604068E-1,9.3457687E-1,2.9717985E-1,5.379411E-1,3.40802E-1,2.0052733E-1,2.4701865E-1,1.2469043E0,3.004173E-1,6.98645E-1,5.945345E-1,8.57851E-1,7.79E-1,-9.772722E-3],"split_indices":[0,202907,557011,0,632905,632904,300216,596604,632905,632905,632905,632905,253134,0,289951,320057,632904,289951,0,596604,0,0,0,632905,237286,0,0,0,0,0,0,0,0,0,0,0,0,0,0],"split_type":[0,0,0,0,0,0,0,0,0,0,0,0,0,0,0,0,0,0,0,0,0,0,0,0,0,0,0,0,0,0,0,0,0,0,0,0,0,0,0],"sum_hessian":[5.4289875E4,2.3616225E2,5.405371E4,2.1663885E1,2.1449837E2,1.21751015E2,5.393196E4,1.2630899E2,8.818938E1,3.7244625E1,8.4506386E1,2.5242079E1,5.390672E4,2.0484774E1,1.0582422E2,4.19534E1,4.6235977E1,3.0891844E1,6.3527813E0,5.9856976E1,2.4649412E1,1.7538654E1,7.7034254E0,1.7436765E2,5.373235E4,1.4763986E1,9.1060234E1,4.966556E0,3.6986843E1,3.2510937E1,1.372504E1,1.7743824E0,2.911746E1,6.3309975E0,5.3525978E1,1.6836122E2,6.0064216E0,1.0635612E2,5.3625996E4],"tree_param":{"num_deleted":"0","num_feature":"632906","num_nodes":"39","size_leaf_vector":"1"}},{"base_weights":[-3.5895696E-3,1.0629131E0,-1.6244585E-2,-4.035057E-1,1.0991114E0,4.890684E0,-1.9013148E-2,-3.301752E-1,1.133803E0,1.8709656E0,2.6120512E0,2.130246E0,-2.5339654E-2,-6.2914443E-1,1.141153E0,3.162981E0,4.0746185E-1,-7.692158E-1,2.189E0,1.4748883E-1,-1.04913786E-1,7.77106E-2,-3.5713854E-1,7.7307805E-2,3.4355313E-1,1.1138694E0,4.9256432E-1,7.417981E-1,4.7794083E-1,-3.4539467E-1,5.0937153E-2,4.2371097E-1,-3.5608176E-2],"categories":[],"categories_nodes":[],"categories_segments":[],"categories_sizes":[],"default_left":[0,0,0,0,0,0,0,0,0,0,0,0,0,0,0,0,0,0,0,0,0,0,0,0,0,0,0,0,0,0,0,0,0],"id":16,"left_children":[1,3,5,-1,7,9,11,-1,13,-1,15,17,19,21,23,25,-1,-1,27,29,31,-1,-1,-1,-1,-1,-1,-1,-1,-1,-1,-1,-1],"loss_changes":[7.2921246E2,5.6703796E1,7.254776E2,0E0,4.8923462E1,7.605969E1,7.2569214E2,0E0,8.694031E0,0E0,4.6168213E0,4.8815063E1,7.318049E2,1.9038801E0,1.885437E0,7.724457E-1,0E0,0E0,2.2300049E1,4.8612012E2,7.6197906E2,0E0,0E0,0E0,0E0,0E0,0E0,0E0,0E0,0E0,0E0,0E0,0E0],"parents":[2147483647,0,0,1,1,2,2,4,4,5,5,6,6,8,8,10,10,11,11,12,12,13,13,14,14,15,15,18,18,19,19,20,20],"right_children":[2,4,6,-1,8,10,12,-1,14,-1,16,18,20,22,24,26,-1,-1,28,30,32,-1,-1,-1,-1,-1,-1,-1,-1,-1,-1,-1,-1],"split_conditions":[8.00001E0,2.00001E0,2.00001E0,-4.035057E-1,2.00001E0,9.2E1,2.00001E0,-3.301752E-1,2.00001E0,1.8709656E0,4E0,2.00001E0,3.1E1,6.9E1,2E0,1.15E2,4.0746185E-1,-7.692158E-1,3E0,2.00001E0,4.00001E0,7.77106E-2,-3.5713854E-1,7.7307805E-2,3.4355313E-1,1.1138694E0,4.9256432E-1,7.417981E-1,4.7794083E-1,-3.4539467E-1,5.0937153E-2,4.2371097E-1,-3.5608176E-2],"split_indices":[289951,232793,510389,0,435963,632904,178467,0,180672,0,632905,217920,632904,632904,251470,632904,0,0,632905,290294,596647,0,0,0,0,0,0,0,0,0,0,0,0],"split_type":[0,0,0,0,0,0,0,0,0,0,0,0,0,0,0,0,0,0,0,0,0,0,0,0,0,0,0,0,0,0,0,0,0],"sum_hessian":[5.4027035E4,6.3258844E2,5.3394445E4,8.833333E0,6.237551E2,2.9113396E1,5.3365332E4,9.207514E0,6.145476E2,1.7210875E1,1.1902521E1,1.5563855E2,5.3209695E4,2.2002933E0,6.1234735E2,7.211305E0,4.691216E0,1.3968067E0,1.5424174E2,1.6774973E4,3.6434723E4,1.0606058E0,1.1396877E0,3.0713596E0,6.0927594E2,4.238168E0,2.9731376E0,1.0236247E2,5.187928E1,2.8232477E2,1.6492648E4,3.2701227E2,3.6107707E4],"tree_param":{"num_deleted":"0","num_feature":"632906","num_nodes":"33","size_leaf_vector":"1"}},{"base_weights":[-2.84874E-3,3.0625436E0,-7.253258E-3,6.305485E-1,4.1463842E0,3.1654956E0,-1.1425269E-2,4.5441723E0,5.3627354E-1,3.4029448E-1,3.8399856E0,-1.1814772E0,-4.926405E-4,3.4943944E-1,4.735966E0,4.225428E0,1.4918585E0,-1.1633171E0,-6.696448E-1,3.0903685E0,-4.5909574E-3,3.3713663E-1,1.4534111E0,4.2833367E-1,1.3270905E0,5.873109E-1,2.3684554E-1,-3.4399793E-1,-4.6872953E-1,1.0217121E0,3.2413048E-1,1.0723552E0,-2.4328234E-3],"categories":[],"categories_nodes":[],"categories_segments":[],"categories_sizes":[],"default_left":[0,0,0,0,0,0,0,0,0,0,0,0,0,0,0,0,0,0,0,0,0,0,0,0,0,0,0,0,0,0,0,0,0],"id":17,"left_children":[1,3,5,-1,7,9,11,13,-1,-1,15,17,19,-1,21,23,25,27,-1,29,31,-1,-1,-1,-1,-1,-1,-1,-1,-1,-1,-1,-1],"loss_changes":[7.238768E2,7.13844E1,7.086874E2,0E0,2.4828674E1,9.196869E1,6.839402E2,1.3540344E1,0E0,0E0,4.1088196E1,6.84729E0,6.710456E2,0E0,5.355774E0,1.832306E1,1.375988E0,1.4569702E0,0E0,4.0781006E1,6.662484E2,0E0,0E0,0E0,0E0,0E0,0E0,0E0,0E0,0E0,0E0,0E0,0E0],"parents":[2147483647,0,0,1,1,2,2,4,4,5,5,6,6,7,7,10,10,11,11,12,12,14,14,15,15,16,16,17,17,19,19,20,20],"right_children":[2,4,6,-1,8,10,12,14,-1,-1,16,18,20,-1,22,24,26,28,-1,30,32,-1,-1,-1,-1,-1,-1,-1,-1,-1,-1,-1,-1],"split_conditions":[4.00001E0,3E0,4.00001E0,6.305485E-1,4E0,2E0,4.00001E0,4E0,5.3627354E-1,3.4029448E-1,4E0,9.4E1,3E0,3.4943944E-1,2E0,2E0,5.6E1,4E0,-6.696448E-1,4E0,4.00001E0,3.3713663E-1,1.4534111E0,4.2833367E-1,1.3270905E0,5.873109E-1,2.3684554E-1,-3.4399793E-1,-4.6872953E-1,1.0217121E0,3.2413048E-1,1.0723552E0,-2.4328234E-3],"split_indices":[352074,523402,149059,0,632905,596604,432353,211311,0,0,632905,632904,112593,0,557011,463005,632904,632905,0,632905,335199,0,0,0,0,0,0,0,0,0,0,0,0],"split_type":[0,0,0,0,0,0,0,0,0,0,0,0,0,0,0,0,0,0,0,0,0,0,0,0,0,0,0,0,0,0,0,0,0],"sum_hessian":[5.3611594E4,7.592525E1,5.3535668E4,4.180689E1,3.411836E1,6.9309265E1,5.346636E4,2.8402159E1,5.7162004E0,1.7946457E1,5.1362812E1,4.9395847E2,5.2972402E4,1.905246E0,2.6496914E1,4.3433727E1,7.9290833E0,4.8763724E2,6.3212266E0,6.914838E1,5.2903254E4,1.1055696E0,2.5391344E1,3.416337E0,4.001739E1,3.692674E0,4.2364097E0,4.7181854E2,1.5818683E1,5.917066E1,9.977714E0,5.095889E1,5.2852293E4],"tree_param":{"num_deleted":"0","num_feature":"632906","num_nodes":"33","size_leaf_vector":"1"}},{"base_weights":[-2.8547312E-3,2.7359607E0,-7.3526395E-3,3.8066957E0,2.0847795E0,1.3405861E0,-1.6450377E-2,-2.5235647E-1,4.31104E0,-2.4106678E-1,2.219174E0,1.785862E0,1.1654267E0,3.5197625E-1,-2.6732313E-2,5.90757E-1,4.591131E0,-2.3247862E-1,2.3320234E0,3.300309E-1,1.826318E0,4.0415773E-1,1.0646108E0,2.0171137E0,-3.279776E-2,2.9592535E-1,1.4295915E0,7.3361695E-1,5.951378E-2,3.8045153E-1,5.655902E-1,5.2196085E-2,3.2120773E-1,6.239435E-1,3.219346E-1,8.8359576E-1,-1.1087596E-2],"categories":[],"categories_nodes":[],"categories_segments":[],"categories_sizes":[],"default_left":[0,0,0,0,0,0,0,0,0,0,0,0,0,0,0,0,0,0,0,0,0,0,0,0,0,0,0,0,0,0,0,0,0,0,0,0,0],"id":18,"left_children":[1,3,5,7,9,11,13,-1,15,-1,17,19,21,-1,23,-1,25,-1,27,-1,29,-1,31,33,35,-1,-1,-1,-1,-1,-1,-1,-1,-1,-1,-1,-1],"loss_changes":[6.586837E2,5.3189392E1,6.5464197E2,7.8504364E1,2.380243E1,2.5831604E1,6.4864557E2,0E0,9.96759E0,0E0,2.0211182E1,7.418213E-1,3.3251953E0,0E0,6.517763E2,0E0,1.1078674E1,0E0,1.22717285E1,0E0,6.4175415E-1,0E0,7.444153E-1,6.975586E0,6.496287E2,0E0,0E0,0E0,0E0,0E0,0E0,0E0,0E0,0E0,0E0,0E0,0E0],"parents":[2147483647,0,0,1,1,2,2,3,3,4,4,5,5,6,6,8,8,10,10,11,11,12,12,14,14,16,16,18,18,20,20,22,22,23,23,24,24],"right_children":[2,4,6,8,10,12,14,-1,16,-1,18,20,22,-1,24,-1,26,-1,28,-1,30,-1,32,34,36,-1,-1,-1,-1,-1,-1,-1,-1,-1,-1,-1,-1],"split_conditions":[4.00001E0,4.8E1,8.00001E0,2.00001E0,2.00001E0,3E0,4.00001E0,-2.5235647E-1,2E0,-2.4106678E-1,2.00001E0,2E0,5E0,3.5197625E-1,2.00001E0,5.90757E-1,2E0,-2.3247862E-1,1.33E2,3.300309E-1,2.5E1,4.0415773E-1,2.00001E0,6E0,4.00001E0,2.9592535E-1,1.4295915E0,7.3361695E-1,5.951378E-2,3.8045153E-1,5.655902E-1,5.2196085E-2,3.2120773E-1,6.239435E-1,3.219346E-1,8.8359576E-1,-1.1087596E-2],"split_indices":[237044,632904,348501,183566,50364,632905,596604,0,293164,0,559502,293164,632905,0,350744,0,596552,0,632904,0,632904,0,598494,632905,398175,0,0,0,0,0,0,0,0,0,0,0,0],"split_type":[0,0,0,0,0,0,0,0,0,0,0,0,0,0,0,0,0,0,0,0,0,0,0,0,0,0,0,0,0,0,0,0,0,0,0,0,0],"sum_hessian":[5.3466547E4,8.666752E1,5.337988E4,3.0942703E1,5.5724815E1,3.5688403E2,5.3022996E4,2.9635575E0,2.7979145E1,2.2562203E0,5.3468597E1,9.815826E1,2.5872577E2,4.5335187E2,5.2569645E4,3.8467693E0,2.4132376E1,1.7289692E0,5.1739628E1,7.038759E0,9.11195E1,8.789427E1,1.7083151E2,1.5456644E2,5.241508E4,1.4194175E0,2.271296E1,4.8990517E1,2.7491095E0,1.0859347E1,8.0260155E1,1.3594108E0,1.694721E2,1.4381166E2,1.0754767E1,7.2143585E1,5.2342934E4],"tree_param":{"num_deleted":"0","num_feature":"632906","num_nodes":"37","size_leaf_vector":"1"}},{"base_weights":[-1.5606997E-3,-1.1084806E0,9.400201E-3,2.0917445E-1,-3.3477718E-1,1.9489783E0,3.1808119E-3,-5.1489294E-1,2.012104E0,1.9579567E0,-3.0145454E-3,-3.440582E-1,2.0522614E0,3.7089026E-1,2.0395234E0,-1.0433356E0,8.256495E-3,-3.085299E-1,6.259237E-1,3.4257844E-1,6.2938195E-1,-1.3187045E-1,-3.1350675E-1,-3.25479E-1,5.7562604E-3],"categories":[],"categories_nodes":[],"categories_segments":[],"categories_sizes":[],"default_left":[0,0,0,0,0,0,0,0,0,0,0,0,0,0,0,0,0,0,0,0,0,0,0,0,0],"id":19,"left_children":[1,3,5,-1,-1,7,9,-1,11,13,15,-1,17,-1,19,21,23,-1,-1,-1,-1,-1,-1,-1,-1],"loss_changes":[6.4295087E2,7.761841E0,6.329771E2,0E0,0E0,4.2259277E1,6.334649E2,0E0,2.3328003E1,7.2059937E0,6.114019E2,0E0,1.936023E1,0E0,5.308655E0,1.0992432E-1,6.164361E2,0E0,0E0,0E0,0E0,0E0,0E0,0E0,0E0],"parents":[2147483647,0,0,1,1,2,2,5,5,6,6,8,8,9,9,10,10,12,12,14,14,15,15,16,16],"right_children":[2,4,6,-1,-1,8,10,-1,12,14,16,-1,18,-1,20,22,24,-1,-1,-1,-1,-1,-1,-1,-1],"split_conditions":[2.00001E0,2E0,4.00001E0,2.0917445E-1,-3.3477718E-1,2.00001E0,2.00001E0,-5.1489294E-1,2E0,2E0,2.00001E0,-3.440582E-1,2.00001E0,3.7089026E-1,2E0,2.4E1,2.00001E0,-3.085299E-1,6.259237E-1,3.4257844E-1,6.2938195E-1,-1.3187045E-1,-3.1350675E-1,-3.25479E-1,5.7562604E-3],"split_indices":[230941,102720,381721,0,0,265127,291192,0,399753,596552,591297,0,527507,0,320057,632904,629646,0,0,0,0,0,0,0,0],"split_type":[0,0,0,0,0,0,0,0,0,0,0,0,0,0,0,0,0,0,0,0,0,0,0,0,0],"sum_hessian":[5.299076E4,5.1859644E2,5.2472168E4,1.7484721E0,5.1684796E2,1.6671933E2,5.230545E4,2.379325E0,1.6434001E2,1.6425493E2,5.214119E4,1.7169508E0,1.6262305E2,1.832069E1,1.4593423E2,5.578717E2,5.158332E4,1.4637815E0,1.6115927E2,1.017276E1,1.3576147E2,2.28317E0,5.5558856E2,5.097151E2,5.1073605E4],"tree_param":{"num_deleted":"0","num_feature":"632906","num_nodes":"25","size_leaf_vector":"1"}},{"base_weights":[-2.2635525E-3,8.688501E-1,-1.5481138E-2,-9.1343886E-1,9.803241E-1,1.7429689E0,-2.2100499E-2,5.0859237E-1,-1.2464494E0,1.1907758E0,5.1911724E-1,3.513778E-1,1.8068353E0,3.3729076E0,-2.5521325E-2,-1.289965E0,6.9415554E-2,-4.3905675E-1,1.2329586E0,-4.034231E-1,5.6268966E-1,3.6016163E-1,1.8834643E0,3.715262E0,1.5703642E0,1.2282399E0,-3.4566462E-2,1.0892829E-2,-4.0236542E-1,-3.398369E-1,3.8370368E-1,6.4749116E-1,1.529691E-1,5.994279E-1,4.1657773E-1,2.2847444E-1,1.1502496E0,5.9627134E-1,2.8130177E-1,-3.6063936E-1,3.7378633E-1,9.3089664E-1,-1.1437993E-2],"categories":[],"categories_nodes":[],"categories_segments":[],"categories_sizes":[],"default_left":[0,0,0,0,0,0,0,0,0,0,0,0,0,0,0,0,0,0,0,0,0,0,0,0,0,0,0,0,0,0,0,0,0,0,0,0,0,0,0,0,0,0,0],"id":20,"left_children":[1,3,5,7,9,11,13,-1,15,17,19,-1,21,23,25,27,-1,-1,29,-1,31,-1,33,35,37,39,41,-1,-1,-1,-1,-1,-1,-1,-1,-1,-1,-1,-1,-1,-1,-1,-1],"loss_changes":[6.0714417E2,1.5748175E2,6.046403E2,4.286605E1,7.1423706E1,4.996765E0,6.010824E2,0E0,3.0108032E0,5.8782776E1,1.978777E1,0E0,5.7944336E0,2.6315308E1,5.863166E2,2.8439865E0,0E0,0E0,5.608496E1,0E0,1.8247635E1,0E0,5.857849E0,1.2199097E1,7.8849983E-1,1.7441345E1,5.7346906E2,0E0,0E0,0E0,0E0,0E0,0E0,0E0,0E0,0E0,0E0,0E0,0E0,0E0,0E0,0E0,0E0],"parents":[2147483647,0,0,1,1,2,2,3,3,4,4,5,5,6,6,8,8,9,9,10,10,12,12,13,13,14,14,15,15,18,18,20,20,22,22,23,23,24,24,25,25,26,26],"right_children":[2,4,6,8,10,12,14,-1,16,18,20,-1,22,24,26,28,-1,-1,30,-1,32,-1,34,36,38,40,42,-1,-1,-1,-1,-1,-1,-1,-1,-1,-1,-1,-1,-1,-1,-1,-1],"split_conditions":[1.000001E1,2.00001E0,3E0,3E0,5.3E1,2E0,6.00001E0,5.0859237E-1,7.4E1,2.00001E0,2.00001E0,3.513778E-1,4.00001E0,4E0,4.00001E0,4.2E1,6.9415554E-2,-4.3905675E-1,2.00001E0,-4.034231E-1,2E0,3.6016163E-1,7.7E1,2E0,6.6E1,2.00001E0,2.00001E0,1.0892829E-2,-4.0236542E-1,-3.398369E-1,3.8370368E-1,6.4749116E-1,1.529691E-1,5.994279E-1,4.1657773E-1,2.2847444E-1,1.1502496E0,5.9627134E-1,2.8130177E-1,-3.6063936E-1,3.7378633E-1,9.3089664E-1,-1.1437993E-2],"split_indices":[293164,104377,186814,104127,632904,596647,102031,0,632904,591517,28463,0,596552,632905,320057,632904,0,0,320591,0,205726,0,632904,289951,632904,622693,430192,0,0,0,0,0,0,0,0,0,0,0,0,0,0,0,0],"split_type":[0,0,0,0,0,0,0,0,0,0,0,0,0,0,0,0,0,0,0,0,0,0,0,0,0,0,0,0,0,0,0,0,0,0,0,0,0,0,0,0,0,0,0],"sum_hessian":[5.2728695E4,7.8713763E2,5.194156E4,4.5910397E1,7.4122723E2,1.938074E2,5.174775E4,4.7340226E0,4.1176373E1,5.0789124E2,2.3333598E2,2.1418201E1,1.723892E2,5.109732E1,5.1696652E4,4.0122078E1,1.0542927E0,7.41816E0,5.0047308E2,4.648044E0,2.2868794E2,2.121341E1,1.511758E2,4.2049755E1,9.047566E0,3.693235E2,5.132733E4,1.5036491E0,3.861843E1,9.1059885E0,4.913671E2,6.0467653E0,2.2264117E2,1.2027791E2,3.089789E1,1.9138064E0,4.013595E1,4.1617746E0,4.8857913E0,2.188644E0,3.6713483E2,5.7188305E1,5.127014E4],"tree_param":{"num_deleted":"0","num_feature":"632906","num_nodes":"43","size_leaf_vector":"1"}},{"base_weights":[-1.3566064E-3,-1.1827977E0,8.26436E-3,5.729556E-1,-1.1982415E0,-1.045612E0,1.8691834E-2,2.0839216E-1,-1.2069516E0,2.4023904E-1,-1.057187E0,2.1718152E0,1.3709802E-2,-1.1950676E0,-5.936909E-1,1.932868E-1,-1.0618955E0,-1.657709E0,2.4429567E0,-1.1646305E-2,4.3657103E-1,-3.4162492E-1,-3.8242245E-1,-1.571508E-1,-3.2020825E-1,-2.8551322E-1,-6.823918E-1,-4.0944517E-1,7.6276463E-1,5.132743E-1,-5.5068387E-3,2.2712355E0,1.2614182E-1],"categories":[],"categories_nodes":[],"categories_segments":[],"categories_sizes":[],"default_left":[0,0,0,0,0,0,0,0,0,0,0,0,1,0,0,0,0,0,0,0,0,0,0,0,0,0,0,0,0,0,0,0,0],"id":21,"left_children":[1,3,5,-1,7,9,11,-1,13,-1,15,17,19,21,-1,-1,23,25,27,29,31,-1,-1,-1,-1,-1,-1,-1,-1,-1,-1,-1,-1],"loss_changes":[5.945977E2,2.2470276E1,5.702365E2,0E0,7.7806396E0,1.1711975E1,5.511319E2,0E0,1.4837646E0,0E0,4.7351074E0,1.2720557E2,5.4965845E2,4.1351318E-1,0E0,0E0,9.248657E-1,1.5105057E0,4.5628357E1,5.5903156E2,3.2988513E2,0E0,0E0,0E0,0E0,0E0,0E0,0E0,0E0,0E0,0E0,0E0,0E0],"parents":[2147483647,0,0,1,1,2,2,4,4,5,5,6,6,8,8,10,10,11,11,12,12,13,13,16,16,17,17,18,18,19,19,20,20],"right_children":[2,4,6,-1,8,10,12,-1,14,-1,16,18,20,22,-1,-1,24,26,28,30,32,-1,-1,-1,-1,-1,-1,-1,-1,-1,-1,-1,-1],"split_conditions":[1.000001E1,2.00001E0,6.00001E0,5.729556E-1,2E0,2E0,6.00001E0,2.0839216E-1,4E0,2.4023904E-1,2.00001E0,2E0,1.01E2,3E0,-5.936909E-1,1.932868E-1,3.8E1,3E0,2.00001E0,2.00001E0,2.00001E0,-3.4162492E-1,-3.8242245E-1,-1.571508E-1,-3.2020825E-1,-2.8551322E-1,-6.823918E-1,-4.0944517E-1,7.6276463E-1,5.132743E-1,-5.5068387E-3,2.2712355E0,1.2614182E-1],"split_indices":[28936,512486,29679,0,557590,596604,369411,0,632905,0,557547,399753,632904,632905,0,0,632904,632905,139426,426874,487848,0,0,0,0,0,0,0,0,0,0,0,0],"split_type":[0,0,0,0,0,0,0,0,0,0,0,0,0,0,0,0,0,0,0,0,0,0,0,0,0,0,0,0,0,0,0,0,0],"sum_hessian":[5.2309074E4,4.215487E2,5.1887523E4,1.4851205E0,4.200636E2,5.0739325E2,5.138013E4,1.5633782E0,4.185002E2,2.7362075E0,5.0465704E2,1.1760806E2,5.1262523E4,4.146651E2,3.835109E0,1.017816E0,5.0363922E2,7.4382715E0,1.10169785E2,4.836347E4,2.8990552E3,2.5190022E2,1.627649E2,6.0381265E0,4.976011E2,4.654474E0,2.7837977E0,2.4842305E0,1.07685555E2,1.8667183E2,4.8176797E4,5.4704328E0,2.8935847E3],"tree_param":{"num_deleted":"0","num_feature":"632906","num_nodes":"33","size_leaf_vector":"1"}},{"base_weights":[-1.8104172E-3,-9.6641016E-1,9.027419E-3,1.4771007E0,-9.9531657E-1,5.416327E0,7.2169183E-3,1.248972E0,-1.0141274E0,1.8976052E0,6.385405E-1,4.183919E0,4.9093096E-3,4.9504057E-1,-1.0367109E0,4.493136E0,7.253083E-1,5.3708396E0,3.1177911E-3,4.3513972E-1,-3.182247E-1,3.9097816E-1,1.3950766E0,1.9623623E0,1.1256256E0,7.35557E-1,-2.430609E-4],"categories":[],"categories_nodes":[],"categories_segments":[],"categories_sizes":[],"default_left":[0,0,0,0,0,0,0,0,0,0,0,0,0,0,0,0,0,0,0,0,0,0,0,0,0,0,0],"id":22,"left_children":[1,3,5,-1,7,9,11,-1,13,-1,-1,15,17,-1,19,21,-1,23,25,-1,-1,-1,-1,-1,-1,-1,-1],"loss_changes":[5.4295013E2,1.0314984E2,5.0276462E2,0E0,6.0024292E1,3.791107E1,4.9483453E2,0E0,3.6233887E1,0E0,0E0,4.6202087E0,4.932902E2,0E0,3.559149E1,5.4474792E0,0E0,7.9035645E0,4.934345E2,0E0,0E0,0E0,0E0,0E0,0E0,0E0,0E0],"parents":[2147483647,0,0,1,1,2,2,4,4,5,5,6,6,8,8,11,11,12,12,14,14,15,15,17,17,18,18],"right_children":[2,4,6,-1,8,10,12,-1,14,-1,-1,16,18,-1,20,22,-1,24,26,-1,-1,-1,-1,-1,-1,-1,-1],"split_conditions":[4.00001E0,2.00001E0,2.00001E0,1.4771007E0,2.00001E0,3E0,2.00001E0,1.248972E0,2E0,1.8976052E0,6.385405E-1,4E0,2.00001E0,4.9504057E-1,2.00001E0,2E0,7.253083E-1,3E0,2.00001E0,4.3513972E-1,-3.182247E-1,3.9097816E-1,1.3950766E0,1.9623623E0,1.1256256E0,7.35557E-1,-2.430609E-4],"split_indices":[399753,354381,557556,0,542149,632905,443829,0,398175,0,0,632905,430779,0,235060,352074,0,632905,348765,0,0,0,0,0,0,0,0],"split_type":[0,0,0,0,0,0,0,0,0,0,0,0,0,0,0,0,0,0,0,0,0,0,0,0,0,0,0],"sum_hessian":[5.193437E4,5.760498E2,5.135832E4,1.986285E0,5.7406354E2,1.6189312E1,5.1342133E4,1.2852433E0,5.727783E2,1.195904E1,4.230273E0,2.7350006E1,5.131478E4,4.2085543E0,5.6856976E2,2.1961275E1,5.3887296E0,1.6126455E1,5.1298656E4,4.874503E0,5.6369525E2,1.4672627E0,2.0494013E1,7.5946193E0,8.531836E0,8.115774E1,5.1217496E4],"tree_param":{"num_deleted":"0","num_feature":"632906","num_nodes":"27","size_leaf_vector":"1"}},{"base_weights":[-2.070732E-3,1.9131637E0,-7.0825247E-3,1.9903257E0,3.4221685E-1,1.6473769E0,-1.2697072E-2,2.7600121E-1,2.0093899E0,1.796491E0,3.5970083E-1,4.779394E0,-1.4621872E-2,6.5768653E-1,5.356484E-1,2.7215558E-1,1.8196044E0,1.6042403E0,9.488515E-1,2.361807E0,-1.5763903E-2,1.6595478E-1,5.478723E-1,2.9419249E-2,-2.860504E-2],"categories":[],"categories_nodes":[],"categories_segments":[],"categories_sizes":[],"default_left":[0,0,0,0,0,0,0,0,0,0,0,0,0,0,0,0,0,0,0,0,0,0,0,0,0],"id":23,"left_children":[1,3,5,7,-1,9,11,-1,13,15,-1,17,19,-1,-1,-1,21,-1,-1,-1,23,-1,-1,-1,-1],"loss_changes":[4.9770175E2,5.7955933E0,4.8040277E2,6.345825E-1,0E0,9.540497E0,4.7547455E2,0E0,9.4729614E-1,1.006073E0,0E0,2.0931396E0,4.6420483E2,0E0,0E0,0E0,4.019165E-2,0E0,0E0,0E0,4.6668973E2,0E0,0E0,0E0,0E0],"parents":[2147483647,0,0,1,1,2,2,3,3,5,5,6,6,8,8,9,9,11,11,12,12,16,16,20,20],"right_children":[2,4,6,8,-1,10,12,-1,14,16,-1,18,20,-1,-1,-1,22,-1,-1,-1,24,-1,-1,-1,-1],"split_conditions":[2.00001E0,5E0,6.00001E0,3E0,3.4221685E-1,9.1E1,2.00001E0,2.7600121E-1,3E0,2E0,3.5970083E-1,5.7E1,2.00001E0,6.5768653E-1,5.356484E-1,2.7215558E-1,2E0,1.6042403E0,9.488515E-1,2.361807E0,3.5E1,1.6595478E-1,5.478723E-1,2.9419249E-2,-2.860504E-2],"split_indices":[290339,632905,428766,289951,0,632904,563359,0,632905,596604,0,632904,88612,0,0,0,289951,0,0,0,632904,0,0,0,0],"split_type":[0,0,0,0,0,0,0,0,0,0,0,0,0,0,0,0,0,0,0,0,0,0,0,0,0],"sum_hessian":[5.1848234E4,1.3432884E2,5.1713902E4,1.2069545E2,1.3633388E1,1.7391298E2,5.1539992E4,2.9741774E0,1.1772127E2,1.2825351E2,4.5659473E1,1.9696785E1,5.1520293E4,5.9953785E1,5.7767487E1,4.2685122E0,1.23985E2,1.2867192E1,6.8295927E0,6.460861E0,5.1513832E4,1.0860819E0,1.2289892E2,2.1196848E4,3.0316986E4],"tree_param":{"num_deleted":"0","num_feature":"632906","num_nodes":"25","size_leaf_vector":"1"}},{"base_weights":[-1.8005278E-3,9.724688E-1,-1.1100704E-2,-3.5104725E-1,1.0076586E0,1.5935363E0,-1.6773498E-2,-3.037721E-1,1.040082E0,3.2344955E-1,2.0276797E0,1.9649795E0,-1.8139895E-2,-5.5300725E-1,1.0489185E0,2.1421118E0,1.3791542E0,1.7267932E0,-2.3238093E-2,-2.9158195E-2,-2.3309486E-1,-1.3754771E-3,3.1578085E-1,6.5593517E-1,2.6647967E-1,4.4744506E-1,1.9718741E-1,3.7656295E-1,5.289995E-1,4.375708E-1,-8.777589E-3],"categories":[],"categories_nodes":[],"categories_segments":[],"categories_sizes":[],"default_left":[0,0,0,0,0,0,0,0,0,0,0,0,0,0,0,0,0,0,0,0,0,0,0,0,0,0,0,0,0,0,0],"id":24,"left_children":[1,3,5,-1,7,9,11,-1,13,-1,15,-1,17,19,21,23,25,27,29,-1,-1,-1,-1,-1,-1,-1,-1,-1,-1,-1,-1],"loss_changes":[4.6913425E2,3.8091858E1,4.6687216E2,0E0,3.2638275E1,3.8240295E1,4.5868213E2,0E0,7.267761E0,0E0,4.2392883E0,0E0,4.5459735E2,2.5886703E-1,1.8399048E0,2.5379944E0,4.2619705E-1,3.5177612E-1,4.5457144E2,0E0,0E0,0E0,0E0,0E0,0E0,0E0,0E0,0E0,0E0,0E0,0E0],"parents":[2147483647,0,0,1,1,2,2,4,4,5,5,6,6,8,8,10,10,12,12,13,13,14,14,15,15,16,16,17,17,18,18],"right_children":[2,4,6,-1,8,10,12,-1,14,-1,16,-1,18,20,22,24,26,28,30,-1,-1,-1,-1,-1,-1,-1,-1,-1,-1,-1,-1],"split_conditions":[8.00001E0,2.00001E0,4.00001E0,-3.5104725E-1,2.00001E0,4.00001E0,2.00001E0,-3.037721E-1,2.00001E0,3.2344955E-1,4E0,1.9649795E0,1.200001E1,7.7E1,2E0,1.33E2,8.8E1,2E0,4.00001E0,-2.9158195E-2,-2.3309486E-1,-1.3754771E-3,3.1578085E-1,6.5593517E-1,2.6647967E-1,4.4744506E-1,1.9718741E-1,3.7656295E-1,5.289995E-1,4.375708E-1,-8.777589E-3],"split_indices":[289951,232793,440911,0,435963,596604,196702,0,180672,0,632905,0,211311,632904,5937,632904,632904,293164,596552,0,0,0,0,0,0,0,0,0,0,0,0],"split_type":[0,0,0,0,0,0,0,0,0,0,0,0,0,0,0,0,0,0,0,0,0,0,0,0,0,0,0,0,0,0,0],"sum_hessian":[5.177362E4,4.8856802E2,5.1285055E4,7.373286E0,4.8119476E2,1.7968079E2,5.110537E4,7.123353E0,4.7407138E2,8.3747574E1,9.5933205E1,9.634736E0,5.109574E4,2.2753599E0,4.7179602E2,7.958705E1,1.6346157E1,1.4786847E2,5.094787E4,1.2221363E0,1.0532235E0,1.6433575E0,4.7015268E2,7.615041E1,3.436637E0,1.3222448E1,3.123708E0,1.317527E1,1.3469319E2,2.0518562E2,5.0742684E4],"tree_param":{"num_deleted":"0","num_feature":"632906","num_nodes":"31","size_leaf_vector":"1"}},{"base_weights":[-8.14774E-4,-1.0757084E0,7.3321518E-3,1.8606582E-1,-3.2500944E-1,-3.3532923E-1,1.5181383E-2,-3.1810206E-1,2.3469577E-2,-1.0277616E0,3.2046236E-2,-1.15048416E-1,-3.090187E-1,6.139468E-1,8.322327E-3],"categories":[],"categories_nodes":[],"categories_segments":[],"categories_sizes":[],"default_left":[0,0,0,0,0,0,0,0,0,0,0,0,0,0,0],"id":25,"left_children":[1,3,5,-1,-1,-1,7,-1,9,11,13,-1,-1,-1,-1],"loss_changes":[4.498064E2,5.688904E0,4.5021628E2,0E0,0E0,0E0,4.513153E2,0E0,4.5300143E2,2.0770264E-1,4.321325E2,0E0,0E0,0E0,0E0],"parents":[2147483647,0,0,1,1,2,2,6,6,8,8,9,9,10,10],"right_children":[2,4,6,-1,-1,-1,8,-1,10,12,14,-1,-1,-1,-1],"split_conditions":[2.00001E0,2E0,2.00001E0,1.8606582E-1,-3.2500944E-1,-3.3532923E-1,2.00001E0,-3.1810206E-1,2.00001E0,2.4E1,3E0,-1.15048416E-1,-3.090187E-1,6.139468E-1,8.322327E-3],"split_indices":[230941,102720,96519,0,0,0,629646,0,591297,632904,84662,0,0,0,0],"split_type":[0,0,0,0,0,0,0,0,0,0,0,0,0,0,0],"sum_hessian":[5.1362996E4,3.8538074E2,5.0977613E4,1.3724257E0,3.840083E2,3.5220154E2,5.062541E4,3.861758E2,5.0239234E4,4.0560715E2,4.983363E4,2.0400422E0,4.035671E2,1.05262665E2,4.9728367E4],"tree_param":{"num_deleted":"0","num_feature":"632906","num_nodes":"15","size_leaf_vector":"1"}},{"base_weights":[-1.7012232E-3,1.8430142E0,-6.3570626E-3,-3.0488342E-1,2.00366E0,1.6135999E0,-1.17027955E-2,-2.7629632E-1,2.1237977E0,-2.985694E-1,1.9113892E0,1.2790009E0,-1.832277E-2,2.9296103E0,1.8269721E0,-4.685535E-1,3.554361E-1,3.4420605E0,1.374376E0,3.030845E-1,3.8984305E-1,1.4395247E0,-2.0100702E-2,3.1616637E-1,9.218925E-1,6.0204995E-1,3.4879944E-1,-3.314439E-2,-1.9020458E-1,2.2225009E-1,-4.9776424E-2,-2.3716862E-1,1.1531657E0,9.728711E-1,3.6241096E-1,3.343739E-1,-8.245876E-3],"categories":[],"categories_nodes":[],"categories_segments":[],"categories_sizes":[],"default_left":[0,0,0,0,0,0,0,0,0,0,0,0,0,0,0,0,0,0,0,0,0,0,0,0,0,0,0,0,0,0,0,0,0,0,0,0,0],"id":26,"left_children":[1,3,5,-1,7,9,11,-1,13,15,17,19,21,23,25,27,29,31,33,-1,-1,-1,35,-1,-1,-1,-1,-1,-1,-1,-1,-1,-1,-1,-1,-1,-1],"loss_changes":[4.3955032E2,6.1217438E1,4.4209207E2,0E0,4.493582E1,9.618228E1,4.3477777E2,0E0,2.2823792E1,2.777992E0,1.1480231E2,1.1581421E-1,4.3362347E2,4.8434143E0,8.270325E0,1.0601478E0,1.2108727E0,6.614279E1,3.0058884E1,0E0,0E0,0E0,4.2411517E2,0E0,0E0,0E0,0E0,0E0,0E0,0E0,0E0,0E0,0E0,0E0,0E0,0E0,0E0],"parents":[2147483647,0,0,1,1,2,2,4,4,5,5,6,6,8,8,9,9,10,10,11,11,12,12,13,13,14,14,15,15,16,16,17,17,18,18,22,22],"right_children":[2,4,6,-1,8,10,12,-1,14,16,18,20,22,24,26,28,30,32,34,-1,-1,-1,36,-1,-1,-1,-1,-1,-1,-1,-1,-1,-1,-1,-1,-1,-1],"split_conditions":[8.00001E0,2.00001E0,6.00001E0,-3.0488342E-1,2E0,2.9E1,4.00001E0,-2.7629632E-1,2E0,2.7E1,2E0,4.00001E0,2.00001E0,3E0,8.2E1,2.2E1,2E0,2E0,4.00001E0,3.030845E-1,3.8984305E-1,1.4395247E0,4.00001E0,3.1616637E-1,9.218925E-1,6.0204995E-1,3.4879944E-1,-3.314439E-2,-1.9020458E-1,2.2225009E-1,-4.9776424E-2,-2.3716862E-1,1.1531657E0,9.728711E-1,3.6241096E-1,3.343739E-1,-8.245876E-3],"split_indices":[528600,277691,277435,0,516895,632904,596647,0,632905,632904,632905,320057,540398,186814,632904,632904,632905,222086,583702,0,0,0,596604,0,0,0,0,0,0,0,0,0,0,0,0,0,0],"split_type":[0,0,0,0,0,0,0,0,0,0,0,0,0,0,0,0,0,0,0,0,0,0,0,0,0,0,0,0,0,0,0,0,0,0,0,0,0],"sum_hessian":[5.1175395E4,1.2784131E2,5.104755E4,6.517203E0,1.21324104E2,1.6690942E2,5.088064E4,4.5240436E0,1.16800064E2,2.2490498E1,1.4441893E2,2.586526E2,5.062199E4,2.9054379E1,8.774568E1,1.8075909E1,4.4145885E0,3.6103104E1,1.0831582E2,2.1877522E1,2.3677507E2,1.7683014E1,5.060431E4,2.6559663E0,2.6398413E1,6.7459984E1,2.0285702E1,6.239926E0,1.1835982E1,2.2962132E0,2.1183755E0,3.046403E0,3.30567E1,7.342312E0,1.0097351E2,3.2628018E2,5.0278027E4],"tree_param":{"num_deleted":"0","num_feature":"632906","num_nodes":"37","size_leaf_vector":"1"}},{"base_weights":[-1.0443324E-3,-1.1297288E0,6.408988E-3,-3.3391172E-1,-5.2134407E-1,1.5632024E0,1.0426738E-3,-2.8776494E-1,1.641009E0,2.3874583E0,-6.34381E-6,1.8804655E0,9.332934E-1,4.686958E0,-1.7692915E-3,-3.1759027E-1,5.854282E-1,-3.2290283E-1,3.11368E-1,1.7202858E0,9.4934905E-1,5.854389E-1,-1.7935159E-3],"categories":[],"categories_nodes":[],"categories_segments":[],"categories_sizes":[],"default_left":[0,0,0,0,0,0,0,0,0,0,0,0,0,0,0,0,0,0,0,0,0,0,0],"id":27,"left_children":[1,3,5,-1,-1,7,9,-1,11,-1,13,15,17,19,21,-1,-1,-1,-1,-1,-1,-1,-1],"loss_changes":[4.2782242E2,1.4516907E0,4.220747E2,0E0,0E0,3.5635803E1,4.2027988E2,0E0,2.683899E1,0E0,4.1599603E2,2.8154388E1,1.0501221E1,1.2037506E1,4.1376102E2,0E0,0E0,0E0,0E0,0E0,0E0,0E0,0E0],"parents":[2147483647,0,0,1,1,2,2,5,5,6,6,8,8,10,10,11,11,12,12,13,13,14,14],"right_children":[2,4,6,-1,-1,8,10,-1,12,-1,14,16,18,20,22,-1,-1,-1,-1,-1,-1,-1,-1],"split_conditions":[4.00001E0,9.4E1,6.00001E0,-3.3391172E-1,-5.2134407E-1,2.00001E0,2.00001E0,-2.8776494E-1,3E0,2.3874583E0,2.00001E0,2.00001E0,2.00001E0,2E0,4E0,-3.1759027E-1,5.854282E-1,-3.2290283E-1,3.11368E-1,1.7202858E0,9.4934905E-1,5.854389E-1,-1.7935159E-3],"split_indices":[432353,632904,192863,0,0,301904,422823,0,632905,0,164507,505643,222267,632905,463005,0,0,0,0,0,0,0,0],"split_type":[0,0,0,0,0,0,0,0,0,0,0,0,0,0,0,0,0,0,0,0,0,0,0],"sum_hessian":[5.085402E4,3.3262607E2,5.0521395E4,3.2649533E2,6.13072E0,1.7255331E2,5.034884E4,4.824344E0,1.6772897E2,5.636912E0,5.0343203E4,1.24086914E2,4.364205E1,1.792965E1,5.0325273E4,2.597206E0,1.2148971E2,1.6995302E0,4.1942524E1,8.983372E0,8.946278E0,1.0721985E2,5.0218055E4],"tree_param":{"num_deleted":"0","num_feature":"632906","num_nodes":"23","size_leaf_vector":"1"}},{"base_weights":[-1.2959925E-3,3.189383E0,-3.8575984E-3,4.733375E0,1.477843E0,1.5296297E0,-5.4503917E-3,3.783343E-1,4.9410515E0,-2.0499307E-1,1.6497183E0,4.0732193E0,-7.416124E-3,5.1010313E0,3.2209072E-1,5.3257823E-1,2.572088E-1,5.828877E-1,4.4317565E0,3.90961E0,-9.431055E-3,8.0879587E-1,1.6721373E0,1.5989133E0,8.385728E-1,5.4742396E-1,1.465902E0,7.9816896E-1,-3.7145515E-3],"categories":[],"categories_nodes":[],"categories_segments":[],"categories_sizes":[],"default_left":[0,0,0,0,0,0,0,0,0,0,0,0,0,0,0,0,0,0,0,0,0,0,0,0,0,0,0,0,0],"id":28,"left_children":[1,3,5,7,9,-1,11,-1,13,-1,15,17,19,21,-1,-1,-1,-1,23,25,27,-1,-1,-1,-1,-1,-1,-1,-1],"loss_changes":[4.146392E2,1.00549164E2,4.1200656E2,8.869812E0,8.836651E0,0E0,4.0632193E2,0E0,6.5367737E0,0E0,4.1957092E-1,1.0035461E1,3.998076E2,5.8702393E0,0E0,0E0,0E0,0E0,1.4662231E1,4.41192E1,3.9889902E2,0E0,0E0,0E0,0E0,0E0,0E0,0E0,0E0],"parents":[2147483647,0,0,1,1,2,2,3,3,4,4,6,6,8,8,10,10,11,11,12,12,13,13,18,18,19,19,20,20],"right_children":[2,4,6,8,10,-1,12,-1,14,-1,16,18,20,22,-1,-1,-1,-1,24,26,28,-1,-1,-1,-1,-1,-1,-1,-1],"split_conditions":[2E0,3E0,2.00001E0,2E0,2.00001E0,1.5296297E0,2.00001E0,3.783343E-1,1.42E2,-2.0499307E-1,1.33E2,2E0,4.00001E0,4.3E1,3.2209072E-1,5.3257823E-1,2.572088E-1,5.828877E-1,3E0,2E0,4.00001E0,8.0879587E-1,1.6721373E0,1.5989133E0,8.385728E-1,5.4742396E-1,1.465902E0,7.9816896E-1,-3.7145515E-3],"split_indices":[195466,632905,524260,293164,599764,0,183983,0,632904,0,632904,87211,237374,632904,0,0,0,0,632905,293164,87300,0,0,0,0,0,0,0,0],"split_type":[0,0,0,0,0,0,0,0,0,0,0,0,0,0,0,0,0,0,0,0,0,0,0,0,0,0,0,0,0],"sum_hessian":[5.0728664E4,3.9696354E1,5.068897E4,1.9941462E1,1.9754892E1,1.48190975E1,5.067415E4,1.5245272E0,1.8416935E1,1.2361366E0,1.8518757E1,2.3413158E1,5.0650734E4,1.7379055E1,1.0378809E0,1.4915095E1,3.6036606E0,4.2976537E0,1.9115505E1,2.504443E1,5.062569E4,3.9560888E0,1.3422966E1,1.0885753E1,8.229752E0,8.904878E0,1.6139551E1,5.4893696E1,5.0570797E4],"tree_param":{"num_deleted":"0","num_feature":"632906","num_nodes":"29","size_leaf_vector":"1"}},{"base_weights":[-1.3382485E-3,-1.1538777E0,5.554324E-3,-1.13076E0,-4.4654697E-1,-1.1081287E0,1.2592102E-2,-1.1413647E-1,-3.4027594E-1,4.3920526E-1,-1.1264052E0,2.0931804E0,1.1476307E-2,-8.801129E-1,-3.434131E-1,-1.0084565E0,1.9039802E-2,-2.8931934E-1,-1.2317193E-1,1.9584835E-1,-3.0528998E-1,-3.596464E-1,7.6045147E-3],"categories":[],"categories_nodes":[],"categories_segments":[],"categories_sizes":[],"default_left":[0,0,0,0,0,0,0,0,0,0,0,0,0,0,0,0,0,0,0,0,0,0,0],"id":29,"left_children":[1,3,5,7,-1,9,11,-1,-1,-1,13,-1,15,17,-1,19,21,-1,-1,-1,-1,-1,-1],"loss_changes":[4.0248395E2,6.4682007E-1,3.947627E2,3.1774902E-1,0E0,1.6517578E1,3.888589E2,0E0,0E0,0E0,4.109497E-1,0E0,3.8605673E2,6.366234E-1,0E0,6.280365E0,3.8167984E2,0E0,0E0,0E0,0E0,0E0,0E0],"parents":[2147483647,0,0,1,1,2,2,3,3,5,5,6,6,10,10,12,12,13,13,15,15,16,16],"right_children":[2,4,6,8,-1,10,12,-1,-1,-1,14,-1,16,18,-1,20,22,-1,-1,-1,-1,-1,-1],"split_conditions":[4.00001E0,9.4E1,1.000001E1,2E0,-4.4654697E-1,2.00001E0,2.00001E0,-1.1413647E-1,-3.4027594E-1,4.3920526E-1,5E1,2.0931804E0,6.00001E0,3E0,-3.434131E-1,2E0,2.00001E0,-2.8931934E-1,-1.2317193E-1,1.9584835E-1,-3.0528998E-1,-3.596464E-1,7.6045147E-3],"split_indices":[543349,632904,28936,244348,0,512486,5367,0,0,0,632904,0,29679,632905,0,596604,28463,0,0,0,0,0,0],"split_type":[0,0,0,0,0,0,0,0,0,0,0,0,0,0,0,0,0,0,0,0,0,0,0],"sum_hessian":[5.0663582E4,3.0019476E2,5.0363387E4,2.8489133E2,1.53034115E1,3.1528394E2,5.0048105E4,1.8295616E0,2.8306177E2,1.6663574E0,3.1361758E2,7.0153203E0,5.004109E4,2.5091665E1,2.885259E2,3.6738297E2,4.9673707E4,2.0379513E1,4.7121525E0,1.6329114E0,3.6575006E2,2.5501201E2,4.9418695E4],"tree_param":{"num_deleted":"0","num_feature":"632906","num_nodes":"23","size_leaf_vector":"1"}},{"base_weights":[-2.1335916E-3,1.7872072E0,-6.419243E-3,1.8994435E0,4.0900552E-1,4.650332E-1,-1.1374042E-2,1.9450173E0,3.5233027E-1,1.9047537E0,-1.535522E-2,3.1382018E-1,5.93306E-1,1.9883602E0,3.6840302E-1,2.820853E0,-1.8035239E-2,8.321038E-2,6.0406876E-1,1.0135288E0,4.7075495E-1,9.747166E-1,-6.10017E-3],"categories":[],"categories_nodes":[],"categories_segments":[],"categories_sizes":[],"default_left":[0,0,0,0,0,0,0,0,0,0,0,0,0,0,0,0,0,0,0,0,0,0,0],"id":30,"left_children":[1,3,5,7,-1,-1,9,11,-1,13,15,-1,-1,17,-1,19,21,-1,-1,-1,-1,-1,-1],"loss_changes":[3.8788617E2,3.159912E0,3.891835E2,7.8897095E-1,0E0,0E0,3.837502E2,4.5654297E-1,0E0,3.4597473E0,3.8161063E2,0E0,0E0,3.375E0,0E0,2.7775818E1,3.7670154E2,0E0,0E0,0E0,0E0,0E0,0E0],"parents":[2147483647,0,0,1,1,2,2,3,3,6,6,7,7,9,9,10,10,13,13,15,15,16,16],"right_children":[2,4,6,8,-1,-1,10,12,-1,14,16,-1,-1,18,-1,20,22,-1,-1,-1,-1,-1,-1],"split_conditions":[4.00001E0,7.9E1,2.00001E0,4E0,4.0900552E-1,4.650332E-1,4.00001E0,3E0,3.5233027E-1,4E0,4.00001E0,3.1382018E-1,5.93306E-1,2.4E1,3.6840302E-1,4E0,3E0,8.321038E-2,6.0406876E-1,1.0135288E0,4.7075495E-1,9.747166E-1,-6.10017E-3],"split_indices":[87211,632904,253134,632905,0,0,341507,186814,0,632905,138089,0,0,632904,0,632905,201328,0,0,0,0,0,0],"split_type":[0,0,0,0,0,0,0,0,0,0,0,0,0,0,0,0,0,0,0,0,0,0,0],"sum_hessian":[5.057932E4,1.1985907E2,5.045946E4,9.201286E1,2.7846205E1,1.5912508E2,5.0300336E4,8.498781E1,7.025053E0,1.0330341E2,5.019703E4,4.1382046E0,8.08496E1,9.021937E1,1.3084044E1,4.6395206E1,5.0150637E4,1.4838743E0,8.873549E1,3.0921562E1,1.5473645E1,3.4267128E1,5.011637E4],"tree_param":{"num_deleted":"0","num_feature":"632906","num_nodes":"23","size_leaf_vector":"1"}},{"base_weights":[-1.2636926E-3,3.782387E0,-3.202385E-3,5.2678126E-1,1.3874445E0,-5.6642275E-2,1.3450536E-1,1.4064018E0,-6.444352E-2,1.7755706E0,1.22780666E-1,-2.8942955E-1,1.4775695E0,4.787518E-2,-1.6908062E-1,1.0798323E0,1.5145171E0,9.750253E-1,9.990079E-2,5.203787E-1,2.5802934E-1,-3.4679833E-1,1.9701125E-2,-6.336385E-2,7.7278055E-2,5.7900107E-1,3.780464E-1,5.497797E-1,2.7541277E-1,8.5576683E-1,2.787956E-2],"categories":[],"categories_nodes":[],"categories_segments":[],"categories_sizes":[],"default_left":[0,0,0,0,0,0,0,0,0,0,0,0,0,0,0,0,0,0,0,0,0,0,0,0,0,0,0,0,0,0,0],"id":31,"left_children":[1,3,5,-1,-1,7,9,11,13,15,17,-1,19,21,23,-1,25,27,29,-1,-1,-1,-1,-1,-1,-1,-1,-1,-1,-1,-1],"loss_changes":[3.695655E2,3.5926056E1,3.7057507E2,0E0,0E0,4.1414978E2,2.7066174E2,3.3902954E1,4.2412036E2,4.2063843E1,2.7249176E2,0E0,2.8225037E1,3.729482E2,3.3590015E2,0E0,6.9765778E0,1.6172333E1,2.6091382E2,0E0,0E0,0E0,0E0,0E0,0E0,0E0,0E0,0E0,0E0,0E0,0E0],"parents":[2147483647,0,0,1,1,2,2,5,5,6,6,7,7,8,8,9,9,10,10,12,12,13,13,14,14,16,16,17,17,18,18],"right_children":[2,4,6,-1,-1,8,10,12,14,16,18,-1,20,22,24,-1,26,28,30,-1,-1,-1,-1,-1,-1,-1,-1,-1,-1,-1,-1],"split_conditions":[6.00001E0,2E0,3E0,5.2678126E-1,1.3874445E0,2.00001E0,2.00001E0,2.00001E0,3.4E1,4E0,2.1E1,-2.8942955E-1,5.2E1,2.00001E0,9.9E1,1.0798323E0,7.2E1,2.00001E0,2.00001E0,5.203787E-1,2.5802934E-1,-3.4679833E-1,1.9701125E-2,-6.336385E-2,7.7278055E-2,5.7900107E-1,3.780464E-1,5.497797E-1,2.7541277E-1,8.5576683E-1,2.787956E-2],"split_indices":[253697,293164,632905,0,0,292848,357248,439328,632904,632905,632904,0,632904,392423,632904,0,632904,556997,30859,0,0,0,0,0,0,0,0,0,0,0,0],"split_type":[0,0,0,0,0,0,0,0,0,0,0,0,0,0,0,0,0,0,0,0,0,0,0,0,0,0,0,0,0,0,0],"sum_hessian":[5.0378887E4,2.4801613E1,5.0354086E4,8.188547E0,1.6613066E1,3.627682E4,1.4077264E4,1.9145837E2,3.6085363E4,9.8795235E1,1.3978469E4,5.213066E0,1.862453E2,1.7404117E4,1.8681244E4,1.0768958E1,8.802628E1,3.6437497E2,1.3614094E4,1.3022798E2,5.601733E1,2.5258331E2,1.7151535E4,1.7002797E4,1.6784478E3,3.0924805E1,5.7101475E1,2.0761387E1,3.436136E2,3.334874E1,1.3580745E4],"tree_param":{"num_deleted":"0","num_feature":"632906","num_nodes":"31","size_leaf_vector":"1"}},{"base_weights":[-1.8676686E-3,6.548525E0,-2.99778E-3,3.082431E-1,2.1479554E0,5.4841576E0,-4.3466957E-3,2.0373528E0,6.901022E-1,-3.4689608E-1,2.0220669E-3,2.3044832E0,-1.142616E-3,7.404994E-1,4.4573444E-1,3.651924E-1,-2.14573E-3],"categories":[],"categories_nodes":[],"categories_segments":[],"categories_sizes":[],"default_left":[0,0,0,0,0,0,0,0,0,0,0,0,0,0,0,0,0],"id":32,"left_children":[1,3,5,-1,-1,7,9,-1,-1,-1,11,13,15,-1,-1,-1,-1],"loss_changes":[3.7037454E2,2.177246E1,3.7027402E2,0E0,0E0,3.5540466E1,3.66915E2,0E0,0E0,0E0,3.624141E2,5.490387E0,3.6372342E2,0E0,0E0,0E0,0E0],"parents":[2147483647,0,0,1,1,2,2,5,5,6,6,10,10,11,11,12,12],"right_children":[2,4,6,-1,-1,8,10,-1,-1,-1,12,14,16,-1,-1,-1,-1],"split_conditions":[2.00001E0,2E0,2.00001E0,3.082431E-1,2.1479554E0,3E0,2.00001E0,2.0373528E0,6.901022E-1,-3.4689608E-1,2.00001E0,4E0,8.00001E0,7.404994E-1,4.4573444E-1,3.651924E-1,-2.14573E-3],"split_indices":[424122,293164,102343,0,0,632905,392809,0,0,0,183984,632905,348501,0,0,0,0],"split_type":[0,0,0,0,0,0,0,0,0,0,0,0,0,0,0,0,0],"sum_hessian":[5.0028883E4,7.630413E0,5.002125E4,1.0279013E0,6.6025114E0,1.1294815E1,5.0009957E4,7.204288E0,4.090527E0,2.739705E2,4.973599E4,6.726907E1,4.966872E4,5.437249E1,1.2896581E1,2.4279152E2,4.9425926E4],"tree_param":{"num_deleted":"0","num_feature":"632906","num_nodes":"17","size_leaf_vector":"1"}},{"base_weights":[-1.6727012E-3,3.0569882E0,-4.049058E-3,1.2783307E0,2.597237E0,5.071621E0,-5.471612E-3,3.0569396E0,4.7407457E-1,1.8493699E0,6.2904185E-1,2.2194362E0,-8.672786E-3,1.13517135E-1,3.1835322E0,-4.087376E-1,2.4199295E0,1.139933E0,-1.48976315E-2,2.786632E-1,1.0061636E0,8.299569E-1,4.9088943E-1,-3.084663E-1,3.4808198E-1,7.6153874E-1,-5.315613E-3],"categories":[],"categories_nodes":[],"categories_segments":[],"categories_sizes":[],"default_left":[0,0,0,0,0,0,0,0,0,0,0,0,0,0,0,0,0,0,0,0,0,0,0,0,0,0,0],"id":33,"left_children":[1,3,5,-1,7,9,11,13,-1,-1,-1,15,17,-1,19,-1,21,23,25,-1,-1,-1,-1,-1,-1,-1,-1],"loss_changes":[3.625239E2,1.0368103E1,3.5987018E2,0E0,9.466812E0,3.247827E1,3.5488055E2,5.5742035E0,0E0,0E0,0E0,5.470694E1,3.557475E2,0E0,4.164566E0,0E0,1.3983429E1,1.3020691E1,3.565045E2,0E0,0E0,0E0,0E0,0E0,0E0,0E0,0E0],"parents":[2147483647,0,0,1,1,2,2,4,4,5,5,6,6,7,7,11,11,12,12,14,14,16,16,17,17,18,18],"right_children":[2,4,6,-1,8,10,12,14,-1,-1,-1,16,18,-1,20,-1,22,24,26,-1,-1,-1,-1,-1,-1,-1,-1],"split_conditions":[6.00001E0,2E0,2.00001E0,1.2783307E0,9.4E1,3E0,2.00001E0,2E0,4.7407457E-1,1.8493699E0,6.2904185E-1,2.00001E0,4.00001E0,1.13517135E-1,3E0,-4.087376E-1,3E0,2.00001E0,2.00001E0,2.786632E-1,1.0061636E0,8.299569E-1,4.9088943E-1,-3.084663E-1,3.4808198E-1,7.6153874E-1,-5.315613E-3],"split_indices":[444587,632905,343774,0,632904,632905,557547,293164,0,0,0,319467,320057,0,428766,0,632905,622693,235060,0,0,0,0,0,0,0,0],"split_type":[0,0,0,0,0,0,0,0,0,0,0,0,0,0,0,0,0,0,0,0,0,0,0,0,0,0,0],"sum_hessian":[4.987353E4,3.772012E1,4.9835812E4,8.137992E0,2.9582127E1,1.2964889E1,4.9822848E4,1.8991602E1,1.0590524E1,8.697266E0,4.2676234E0,7.058693E1,4.975226E4,1.0370873E0,1.7954515E1,3.4344034E0,6.715253E1,2.671963E2,4.9485066E4,1.7145194E0,1.6239996E1,4.4805202E1,2.2347326E1,2.0228412E0,2.6517346E2,5.3621254E1,4.9431445E4],"tree_param":{"num_deleted":"0","num_feature":"632906","num_nodes":"27","size_leaf_vector":"1"}},{"base_weights":[-1.1303603E-3,1.5767341E0,-5.616087E-3,7.8813024E-2,1.5843558E0,1.3876702E0,-1.0681654E-2,1.6118209E0,3.0148473E-1,-3.1257525E-1,1.6373659E0,2.2061026E0,-1.3883082E-2,3.9353096E-1,5.034209E-1,1.8016106E0,8.8282216E-1,3.2308295E-1,3.2660906E0,1.5763991E0,-1.8324547E-2,5.4983187E-1,4.4040687E-2,1.3675404E-1,3.2611886E-1,1.3057992E0,6.0837007E-1,3.1546083E-1,4.838865E-1,4.726316E-1,-6.821242E-3],"categories":[],"categories_nodes":[],"categories_segments":[],"categories_sizes":[],"default_left":[0,0,0,0,0,0,0,0,0,0,0,0,0,0,0,0,1,0,0,0,0,0,0,0,0,0,0,0,0,0,0],"id":34,"left_children":[1,3,5,-1,7,9,11,13,-1,-1,15,17,19,-1,-1,21,23,-1,25,27,29,-1,-1,-1,-1,-1,-1,-1,-1,-1,-1],"loss_changes":[3.5172775E2,9.946594E-1,3.4974854E2,0E0,6.059265E-1,1.1060977E2,3.504345E2,4.2025757E-1,0E0,0E0,1.8631561E1,8.1712006E1,3.4827325E2,0E0,0E0,6.591614E0,2.2191887E0,0E0,3.9926605E1,9.388428E-1,3.4584122E2,0E0,0E0,0E0,0E0,0E0,0E0,0E0,0E0,0E0,0E0],"parents":[2147483647,0,0,1,1,2,2,4,4,5,5,6,6,7,7,10,10,11,11,12,12,15,15,16,16,18,18,19,19,20,20],"right_children":[2,4,6,-1,8,10,12,14,-1,-1,16,18,20,-1,-1,22,24,-1,26,28,30,-1,-1,-1,-1,-1,-1,-1,-1,-1,-1],"split_conditions":[2.00001E0,3E0,1.800001E1,7.8813024E-2,6E0,2E0,4.00001E0,3.4E1,3.0148473E-1,-3.1257525E-1,5E0,2E0,2.00001E0,3.9353096E-1,5.034209E-1,1.33E2,6E0,3.2308295E-1,5.1E1,2E0,2.00001E0,5.4983187E-1,4.4040687E-2,1.3675404E-1,3.2611886E-1,1.3057992E0,6.0837007E-1,3.1546083E-1,4.838865E-1,4.726316E-1,-6.821242E-3],"split_indices":[350744,5937,0,0,632905,202907,557590,632904,0,0,632905,596604,291192,0,0,632904,632905,0,632904,596552,178467,0,0,0,0,0,0,0,0,0,0],"split_type":[0,0,0,0,0,0,0,0,0,0,0,0,0,0,0,0,0,0,0,0,0,0,0,0,0,0,0,0,0,0,0],"sum_hessian":[4.9691773E4,1.3987515E2,4.95519E4,1.0111876E0,1.3886397E2,1.7851436E2,4.9373387E4,1.3087822E2,7.9857492E0,1.6340956E1,1.621734E2,7.0208755E1,4.9303176E4,2.7432533E1,1.0344569E2,1.320433E2,3.0130093E1,3.4971317E1,3.5237442E1,1.3632857E2,4.9166848E4,1.2949716E2,2.5461454E0,1.0794844E1,1.9335249E1,1.7428087E1,1.7809353E1,1.0814937E1,1.25513626E2,1.347778E2,4.903207E4],"tree_param":{"num_deleted":"0","num_feature":"632906","num_nodes":"31","size_leaf_vector":"1"}},{"base_weights":[-4.4315448E-4,1.8152556E0,-4.228204E-3,1.9652634E0,3.7653592E-1,-3.3830968E-1,1.8449004E-3,2.3913546E-1,1.9980354E0,-1.1240209E0,7.900277E-3,2.5866532E-1,2.0274086E0,-3.3796954E-1,-8.423193E-2,-8.613467E-1,1.5802728E-2,2.1672118E-1,6.153756E-1,6.3500595E-1,-2.6805514E-1,4.50233E-1,3.3369635E-3],"categories":[],"categories_nodes":[],"categories_segments":[],"categories_sizes":[],"default_left":[0,0,0,0,0,0,0,0,0,0,0,0,0,0,0,0,0,0,0,0,0,0,0],"id":35,"left_children":[1,3,5,7,-1,-1,9,-1,11,13,15,-1,17,-1,-1,19,21,-1,-1,-1,-1,-1,-1],"loss_changes":[3.3976062E2,6.1748657E0,3.3661035E2,1.4451294E0,0E0,0E0,3.3454846E2,0E0,8.0496216E-1,2.4691772E-1,3.3529086E2,0E0,8.161926E-1,0E0,0E0,4.40213E1,3.361057E2,0E0,0E0,0E0,0E0,0E0,0E0],"parents":[2147483647,0,0,1,1,2,2,3,3,6,6,8,8,9,9,10,10,12,12,15,15,16,16],"right_children":[2,4,6,8,-1,-1,10,-1,12,14,16,-1,18,-1,-1,20,22,-1,-1,-1,-1,-1,-1],"split_conditions":[4.00001E0,1.15E2,2.00001E0,2E0,3.7653592E-1,-3.3830968E-1,2.00001E0,2.3913546E-1,3E0,6.7E1,4.00001E0,2.5866532E-1,2E0,-3.3796954E-1,-8.423193E-2,2.00001E0,4.00001E0,2.1672118E-1,6.153756E-1,6.3500595E-1,-2.6805514E-1,4.50233E-1,3.3369635E-3],"split_indices":[557011,632904,542876,596604,0,0,343480,0,428766,632904,399753,0,289951,0,0,354381,381721,0,0,0,0,0,0],"split_type":[0,0,0,0,0,0,0,0,0,0,0,0,0,0,0,0,0,0,0,0,0,0,0],"sum_hessian":[4.9435516E4,1.01844505E2,4.933367E4,7.835264E1,2.3491861E1,2.6425443E2,4.9069418E4,2.8292274E0,7.5523415E1,2.615163E2,4.8807902E4,2.6690564E0,7.2854355E1,2.6039465E2,1.1216288E0,4.3874924E2,4.8369152E4,1.8687838E0,7.098557E1,3.9964855E0,4.3475275E2,1.5093994E2,4.821821E4],"tree_param":{"num_deleted":"0","num_feature":"632906","num_nodes":"23","size_leaf_vector":"1"}},{"base_weights":[-8.091878E-4,2.9021497E0,-3.116228E-3,3.9064639E0,2.0701053E0,4.2345294E-1,-7.7499696E-3,3.478893E-1,1.2070193E0,2.3712249E0,3.2435292E-1,-1.613395E-2,7.7272E-1,1.8523826E-1,2.4704676E0,3.456163E0,-1.8062716E-2,-5.0801796E-1,8.058924E-1,1.7522886E-1,7.6792294E-1,1.2037123E0,4.5307577E-1,1.9176875E-1,-8.4276395E-3,-4.8214826E-1,2.4908364E-1],"categories":[],"categories_nodes":[],"categories_segments":[],"categories_sizes":[],"default_left":[0,0,0,0,0,0,1,0,0,0,0,0,0,0,0,0,0,0,0,0,0,0,0,0,0,0,0],"id":36,"left_children":[1,3,5,7,9,-1,11,-1,-1,13,-1,15,17,-1,19,21,23,-1,25,-1,-1,-1,-1,-1,-1,-1,-1],"loss_changes":[3.3012238E2,2.4621979E1,3.2286356E2,6.6877747E-1,4.4445267E0,0E0,3.212496E2,0E0,0E0,1.46875E0,0E0,3.2536273E2,4.40502E1,0E0,1.1906891E0,2.3131775E1,3.2004688E2,0E0,3.1671387E1,0E0,0E0,0E0,0E0,0E0,0E0,0E0,0E0],"parents":[2147483647,0,0,1,1,2,2,3,3,4,4,6,6,9,9,11,11,12,12,14,14,15,15,16,16,18,18],"right_children":[2,4,6,8,10,-1,12,-1,-1,14,-1,16,18,-1,20,22,24,-1,26,-1,-1,-1,-1,-1,-1,-1,-1],"split_conditions":[2.00001E0,4.1E1,2.00001E0,2E0,7.7E1,4.2345294E-1,1.87E2,3.478893E-1,1.2070193E0,2E0,3.2435292E-1,2.00001E0,2.00001E0,1.8523826E-1,2E0,9.1E1,1.000001E1,-5.0801796E-1,2.00001E0,1.7522886E-1,7.6792294E-1,1.2037123E0,4.5307577E-1,1.9176875E-1,-8.4276395E-3,-4.8214826E-1,2.4908364E-1],"split_indices":[348751,632904,426874,430966,632904,0,632904,0,0,596604,0,563444,238779,0,596647,632904,293164,0,112778,0,0,0,0,0,0,0,0],"split_type":[0,0,0,0,0,0,0,0,0,0,0,0,0,0,0,0,0,0,0,0,0,0,0,0,0,0,0],"sum_hessian":[4.9289934E4,3.8142464E1,4.925179E4,1.5607959E1,2.2534506E1,1.5981093E2,4.909198E4,1.0830715E0,1.4524887E1,1.6203056E1,6.331451E0,4.8571195E4,5.2078314E2,1.2545772E0,1.4948479E1,2.5970766E1,4.8545227E4,6.2479506E0,5.1453516E2,1.0163265E0,1.3932152E1,1.9371687E1,6.599079E0,7.28661E2,4.7816566E4,4.498524E0,5.1003665E2],"tree_param":{"num_deleted":"0","num_feature":"632906","num_nodes":"27","size_leaf_vector":"1"}},{"base_weights":[-3.146973E-4,-3.125157E-1,5.846321E-3,1.6957324E0,2.061987E-3,1.878051E0,3.150866E-1,-1.2288914E0,7.322619E-3,4.2247835E-1,2.0316558E0,-1.1835364E0,-1.2148994E0,-3.3213198E-1,1.3072945E-2,3.2226402E-1,6.344925E-1,-3.3286837E-1,-4.0260294E-1,3.302555E-2,-1.5903095E-2],"categories":[],"categories_nodes":[],"categories_segments":[],"categories_sizes":[],"default_left":[0,0,0,0,0,0,0,0,0,0,0,0,0,0,0,0,0,0,0,0,0],"id":37,"left_children":[1,-1,3,5,7,9,-1,11,13,-1,15,17,-1,-1,19,-1,-1,-1,-1,-1,-1],"loss_changes":[3.14264E2,0E0,3.1138916E2,1.0830383E1,3.1462335E2,3.1691284E0,0E0,2.1658447E1,3.1004233E2,0E0,2.5715485E0,9.1296387E-1,0E0,0E0,3.0857144E2,0E0,0E0,0E0,0E0,0E0,0E0],"parents":[2147483647,0,0,2,2,3,3,4,4,5,5,7,7,8,8,10,10,11,11,14,14],"right_children":[2,-1,4,6,8,10,-1,12,14,-1,16,18,-1,-1,20,-1,-1,-1,-1,-1,-1],"split_conditions":[2.00001E0,-3.125157E-1,6.00001E0,5E0,2.00001E0,2E0,3.150866E-1,6E0,2.00001E0,4.2247835E-1,4.00001E0,3E0,-1.2148994E0,-3.3213198E-1,3.4E1,3.2226402E-1,6.344925E-1,-3.3286837E-1,-4.0260294E-1,3.302555E-2,-1.5903095E-2],"split_indices":[629646,0,490146,632905,107691,87211,0,632905,290294,0,557011,632905,0,0,632904,0,0,0,0,0,0],"split_type":[0,0,0,0,0,0,0,0,0,0,0,0,0,0,0,0,0,0,0,0,0],"sum_hessian":[4.89785E4,2.8706744E2,4.8691434E4,1.0779707E2,4.8583637E4,8.2565155E1,2.5231922E1,2.0575484E2,4.8377883E4,2.2849503E1,5.971565E1,2.03896E2,1.8588489E0,2.4735966E2,4.8130523E4,5.89279E0,5.382286E1,1.4446257E2,5.943343E1,1.9501324E4,2.86292E4],"tree_param":{"num_deleted":"0","num_feature":"632906","num_nodes":"21","size_leaf_vector":"1"}},{"base_weights":[-9.3569275E-4,2.136848E0,-3.9145607E-3,4.60991E-1,2.4400835E0,4.5165477E0,-5.324821E-3,2.7138312E0,2.806878E-1,5.185392E0,1.3435373E0,1.5761756E0,-6.523937E-3,2.5969782E-1,2.7797604E0,3.4071964E-1,5.466181E0,5.2279454E-1,1.493871E-1,1.3869984E0,-1.1044336E-2,1.9481237E-1,8.472169E-1,1.7073231E0,4.9059933E-1,3.075215E-1,4.410634E-1,1.1520684E0,-3.7979686E-3],"categories":[],"categories_nodes":[],"categories_segments":[],"categories_sizes":[],"default_left":[0,0,0,0,0,0,0,0,0,0,0,0,0,0,0,0,0,0,0,0,0,0,0,0,0,0,0,0,0],"id":38,"left_children":[1,3,5,-1,7,9,11,13,-1,15,17,-1,19,-1,21,-1,23,-1,-1,25,27,-1,-1,-1,-1,-1,-1,-1,-1],"loss_changes":[3.1157782E2,8.641815E0,3.1150122E2,0E0,1.5388397E1,2.5374329E1,3.0807062E2,2.0170898E0,0E0,7.7058105E0,4.8308372E-1,0E0,3.0763776E2,0E0,1.4312439E0,0E0,3.2577515E-1,0E0,0E0,3.2486572E0,3.0291895E2,0E0,0E0,0E0,0E0,0E0,0E0,0E0,0E0],"parents":[2147483647,0,0,1,1,2,2,4,4,5,5,6,6,7,7,9,9,10,10,12,12,14,14,16,16,19,19,20,20],"right_children":[2,4,6,-1,8,10,12,14,-1,16,18,-1,20,-1,22,-1,24,-1,-1,26,28,-1,-1,-1,-1,-1,-1,-1,-1],"split_conditions":[3E0,4.00001E0,4.00001E0,4.60991E-1,4E0,4E0,2E0,2E0,2.806878E-1,2E0,2.00001E0,1.5761756E0,8.00001E0,2.5969782E-1,2E0,3.4071964E-1,9.7E1,5.2279454E-1,1.493871E-1,3.1E1,4.00001E0,1.9481237E-1,8.472169E-1,1.7073231E0,4.9059933E-1,3.075215E-1,4.410634E-1,1.1520684E0,-3.7979686E-3],"split_indices":[112593,206130,243493,0,632905,632905,562776,211311,0,430007,243244,0,186814,0,341507,0,632904,0,0,632904,209338,0,0,0,0,0,0,0,0],"split_type":[0,0,0,0,0,0,0,0,0,0,0,0,0,0,0,0,0,0,0,0,0,0,0,0,0,0,0,0,0],"sum_hessian":[4.892502E4,6.7082306E1,4.8857938E4,2.4552198E1,4.253011E1,1.4239076E1,4.88437E4,3.5302658E1,7.227449E0,1.1236332E1,3.0027444E0,1.0135374E1,4.8833562E4,1.702663E0,3.36E1,1.0556766E0,1.0180655E1,1.3191973E0,1.6835471E0,1.5690843E2,4.8676656E4,1.0033696E0,3.2596626E1,9.157461E0,1.0231942E0,3.1821646E1,1.2508679E2,1.9414371E1,4.8657242E4],"tree_param":{"num_deleted":"0","num_feature":"632906","num_nodes":"29","size_leaf_vector":"1"}},{"base_weights":[-7.270501E-4,-1.0525599E0,5.1125307E-3,-3.1794965E-1,9.3596295E-2,-3.6358073E-1,1.0224703E-2,-1.0134922E0,1.627992E-2,-1.0198545E-1,-3.0502525E-1,-3.2212162E-1,2.1872178E-2,1.3795094E0,6.1676973E-3],"categories":[],"categories_nodes":[],"categories_segments":[],"categories_sizes":[],"default_left":[0,0,0,0,0,0,0,0,0,0,0,0,0,0,0],"id":39,"left_children":[1,3,5,-1,-1,-1,7,9,11,-1,-1,-1,13,-1,-1],"loss_changes":[2.9988873E2,3.0056152E0,3.021061E2,0E0,0E0,0E0,2.997439E2,2.7841187E-1,2.930357E2,0E0,0E0,0E0,2.8732123E2,0E0,0E0],"parents":[2147483647,0,0,1,1,2,2,6,6,7,7,8,8,12,12],"right_children":[2,4,6,-1,-1,-1,8,10,12,-1,-1,-1,14,-1,-1],"split_conditions":[2.00001E0,1.54E2,2.00001E0,-3.1794965E-1,9.3596295E-2,-3.6358073E-1,2.00001E0,2.4E1,2.00001E0,-1.0198545E-1,-3.0502525E-1,-3.2212162E-1,2.00001E0,1.3795094E0,6.1676973E-3],"split_indices":[230941,632904,594634,0,0,0,591297,632904,96519,0,0,0,260972,0,0],"split_type":[0,0,0,0,0,0,0,0,0,0,0,0,0,0,0],"sum_hessian":[4.8821945E4,2.6856424E2,4.8553383E4,2.6736267E2,1.2015741E0,2.0210638E2,4.8351277E4,2.833345E2,4.806794E4,1.8712615E0,2.8146323E2,2.4437529E2,4.7823566E4,1.2714445E1,4.781085E4],"tree_param":{"num_deleted":"0","num_feature":"632906","num_nodes":"15","size_leaf_vector":"1"}},{"base_weights":[-1.4783283E-3,8.8681006E-1,-8.186031E-3,-3.1258404E-1,9.2081934E-1,1.7140895E0,-9.243504E-3,-2.8022978E-1,9.512746E-1,4.9933467E0,-1.045203E-2,-4.7161725E-1,9.6207255E-1,2.4267182E-1,1.6845323E0,3.5967307E0,-1.2124887E-2,6.554929E-2,-2.5981143E-1,-2.396953E-3,2.906112E-1,1.2292962E0,5.640804E-1,6.175977E-1,-4.5104614E-3],"categories":[],"categories_nodes":[],"categories_segments":[],"categories_sizes":[],"default_left":[0,0,0,0,0,0,0,0,0,0,0,0,0,0,0,0,0,0,0,0,0,0,0,0,0],"id":40,"left_children":[1,3,5,-1,7,-1,9,-1,11,13,15,17,19,-1,-1,21,23,-1,-1,-1,-1,-1,-1,-1,-1],"loss_changes":[2.903837E2,2.491861E1,2.9272308E2,0E0,2.1195068E1,0E0,2.9243698E2,0E0,5.8949585E0,2.5852661E1,2.9180988E2,1.097908E0,2.270874E0,0E0,0E0,1.1569153E1,2.912642E2,0E0,0E0,0E0,0E0,0E0,0E0,0E0,0E0],"parents":[2147483647,0,0,1,1,2,2,4,4,6,6,8,8,9,9,10,10,11,11,12,12,15,15,16,16],"right_children":[2,4,6,-1,8,-1,10,-1,12,14,16,18,20,-1,-1,22,24,-1,-1,-1,-1,-1,-1,-1,-1],"split_conditions":[8.00001E0,2.00001E0,2.00001E0,-3.1258404E-1,2.00001E0,1.7140895E0,2.00001E0,-2.8022978E-1,2.00001E0,2E0,6.00001E0,6.9E1,2E0,2.4267182E-1,1.6845323E0,6.9E1,2.00001E0,6.554929E-2,-2.5981143E-1,-2.396953E-3,2.906112E-1,1.2292962E0,5.640804E-1,6.175977E-1,-4.5104614E-3],"split_indices":[289951,232793,493327,0,435963,0,30906,0,180672,557590,627624,632904,251470,0,0,632904,541107,0,0,0,0,0,0,0,0],"split_type":[0,0,0,0,0,0,0,0,0,0,0,0,0,0,0,0,0,0,0,0,0,0,0,0,0],"sum_hessian":[4.8733164E4,3.6425577E2,4.836891E4,5.798013E0,3.5845776E2,7.939409E0,4.836097E4,5.311026E0,3.5314673E2,1.0682551E1,4.835029E4,2.338336E0,3.508084E2,1.6796339E0,9.002917E0,2.1416225E1,4.832887E4,1.01261E0,1.325726E0,2.3805E0,3.4842792E2,1.5504277E1,5.911949E0,6.682784E1,4.8262043E4],"tree_param":{"num_deleted":"0","num_feature":"632906","num_nodes":"25","size_leaf_vector":"1"}},{"base_weights":[-9.90405E-4,1.4721797E0,-2.1953154E-3,2.305948E0,-4.750542E-3,3.5332277E0,3.9802894E-1,1.4348724E0,-8.85513E-3,1.687954E-1,1.0973625E0,4.47094E-1,3.1099084E-1,3.6241442E-1,-1.3749618E-2,3.9467677E-1,-5.4488177E-3],"categories":[],"categories_nodes":[],"categories_segments":[],"categories_sizes":[],"default_left":[0,0,0,0,0,0,0,0,0,0,0,0,0,0,0,0,0],"id":41,"left_children":[1,-1,3,5,7,9,-1,11,13,-1,-1,-1,-1,-1,15,-1,-1],"loss_changes":[2.8719162E2,0E0,2.8634177E2,5.9831116E1,2.8657733E2,6.541321E0,0E0,1.4993286E0,2.8804816E2,0E0,0E0,0E0,0E0,0E0,2.8259164E2,0E0,0E0],"parents":[2147483647,0,0,2,2,3,3,4,4,5,5,7,7,8,8,14,14],"right_children":[2,-1,4,6,8,10,-1,12,14,-1,-1,-1,-1,-1,16,-1,-1],"split_conditions":[2.00001E0,1.4721797E0,2.00001E0,1.06E2,6.00001E0,2E0,3.9802894E-1,1.2E2,4.00001E0,1.687954E-1,1.0973625E0,4.47094E-1,3.1099084E-1,3.6241442E-1,4.00001E0,3.9467677E-1,-5.4488177E-3],"split_indices":[47448,0,430192,632904,428766,289951,0,632904,596647,0,0,0,0,0,596552,0,0],"split_type":[0,0,0,0,0,0,0,0,0,0,0,0,0,0,0,0,0],"sum_hessian":[4.855842E4,1.0918204E1,4.8547504E4,5.2688168E1,4.8494816E4,2.2224434E1,3.0463734E1,1.368821E2,4.8357934E4,1.1170473E0,2.1107386E1,1.17747475E2,1.9134626E1,1.9273584E2,4.81652E4,1.5838557E2,4.8006812E4],"tree_param":{"num_deleted":"0","num_feature":"632906","num_nodes":"17","size_leaf_vector":"1"}},{"base_weights":[-3.8036553E-4,2.015216E0,-3.2443192E-3,3.124473E0,1.742231E0,5.449996E-1,-6.3939365E-3,9.8718065E-1,3.1223467E-1,8.3758175E-1,1.8567673E0,3.2141936E-1,-1.1705007E-2,2.7978885E-1,9.644119E-2,6.19646E-1,3.6671445E-1,4.968591E0,-1.2863407E-2,2.6075524E-1,1.586413E0,4.629759E-1,-4.9665077E-3],"categories":[],"categories_nodes":[],"categories_segments":[],"categories_sizes":[],"default_left":[0,0,0,0,0,0,0,0,0,0,0,0,0,0,0,0,0,0,0,0,0,0,0],"id":42,"left_children":[1,3,5,7,9,-1,11,-1,-1,13,15,-1,17,-1,-1,-1,-1,19,21,-1,-1,-1,-1],"loss_changes":[2.7898694E2,1.5321411E1,2.7664465E2,8.2694244E-1,4.381073E0,0E0,2.7579803E2,0E0,0E0,1.0539532E-1,4.099777E0,0E0,2.7665744E2,0E0,0E0,0E0,0E0,1.0007233E1,2.7538217E2,0E0,0E0,0E0,0E0],"parents":[2147483647,0,0,1,1,2,2,3,3,4,4,6,6,9,9,10,10,12,12,17,17,18,18],"right_children":[2,4,6,8,10,-1,12,-1,-1,14,16,-1,18,-1,-1,-1,-1,20,22,-1,-1,-1,-1],"split_conditions":[2.00001E0,3E0,4.00001E0,5.4E1,2E0,5.449996E-1,4.00001E0,9.8718065E-1,3.1223467E-1,4.3E1,5E0,3.2141936E-1,2E0,2.7978885E-1,9.644119E-2,6.19646E-1,3.6671445E-1,2E0,2.00001E0,2.6075524E-1,1.586413E0,4.629759E-1,-4.9665077E-3],"split_indices":[348765,632905,352074,632904,348501,0,596604,0,0,632904,632905,0,261446,0,0,0,0,293164,290339,0,0,0,0],"split_type":[0,0,0,0,0,0,0,0,0,0,0,0,0,0,0,0,0,0,0,0,0,0,0],"sum_hessian":[4.832759E4,6.75741E1,4.8260016E4,1.12825575E1,5.629154E1,8.238189E1,4.8177637E4,9.912994E0,1.3695626E0,7.2602463E0,4.9031292E1,2.3525816E2,4.794238E4,5.449607E0,1.8106391E0,3.519567E1,1.383562E1,1.0151446E1,4.7932227E4,1.0028685E0,9.148578E0,1.124548E2,4.781977E4],"tree_param":{"num_deleted":"0","num_feature":"632906","num_nodes":"23","size_leaf_vector":"1"}},{"base_weights":[7.7321616E-5,-3.2817838E-1,5.293823E-3,-3.2935944E-1,1.0461991E-2,1.4603157E0,9.288159E-3,1.8733033E0,6.2443027E-3,7.544355E-1,3.3853197E-1,4.4413367E-1,7.198678E-4],"categories":[],"categories_nodes":[],"categories_segments":[],"categories_sizes":[],"default_left":[0,0,0,0,0,0,0,0,0,0,0,0,0],"id":43,"left_children":[1,-1,3,-1,5,-1,7,9,11,-1,-1,-1,-1],"loss_changes":[2.7462726E2,0E0,2.7306863E2,0E0,2.717582E2,0E0,2.7040646E2,3.4287537E1,2.697002E2,0E0,0E0,0E0,0E0],"parents":[2147483647,0,0,2,2,4,4,6,6,7,7,8,8],"right_children":[2,-1,4,-1,6,-1,8,10,12,-1,-1,-1,-1],"split_conditions":[4.00001E0,-3.2817838E-1,4.00001E0,-3.2935944E-1,2.00001E0,1.4603157E0,8.00001E0,4E0,1.200001E1,7.544355E-1,3.3853197E-1,4.4413367E-1,7.198678E-4],"split_indices":[432353,0,543349,0,21052,0,84662,632905,211311,0,0,0,0],"split_type":[0,0,0,0,0,0,0,0,0,0,0,0,0],"sum_hessian":[4.812013E4,2.2736998E2,4.7892758E4,2.2233977E2,4.7670418E4,1.0515845E1,4.7659902E4,7.6697975E1,4.7583203E4,3.993205E1,3.6765926E1,1.22776024E2,4.746043E4],"tree_param":{"num_deleted":"0","num_feature":"632906","num_nodes":"13","size_leaf_vector":"1"}},{"base_weights":[-2.6758085E-4,-3.4682372E-1,4.51046E-3,-3.3194107E-1,9.4845565E-3,-3.3259383E-1,1.4472198E-2,-1.058322E0,1.9663285E-2,3.6023453E-1,-3.2408863E-1,-3.3237642E-1,7.390784E-3],"categories":[],"categories_nodes":[],"categories_segments":[],"categories_sizes":[],"default_left":[0,0,0,0,0,0,0,0,0,0,0,0,0],"id":44,"left_children":[1,-1,3,-1,5,-1,7,9,11,-1,-1,-1,-1],"loss_changes":[2.6511395E2,0E0,2.6420596E2,0E0,2.65453E2,0E0,2.6391174E2,1.2625504E1,2.64451E2,0E0,0E0,0E0,0E0],"parents":[2147483647,0,0,2,2,4,4,6,6,7,7,8,8],"right_children":[2,-1,4,-1,6,-1,8,10,12,-1,-1,-1,-1],"split_conditions":[4.00001E0,-3.4682372E-1,2.00001E0,-3.3194107E-1,2.00001E0,-3.3259383E-1,1.000001E1,2.00001E0,2.00001E0,3.6023453E-1,-3.2408863E-1,-3.3237642E-1,7.390784E-3],"split_indices":[509867,0,543710,0,392809,0,28936,512486,392423,0,0,0,0],"split_type":[0,0,0,0,0,0,0,0,0,0,0,0,0],"sum_hessian":[4.8004086E4,1.9663644E2,4.780745E4,2.12103E2,4.7595348E4,2.103829E2,4.738496E4,2.2720753E2,4.7157754E4,1.6719005E0,2.2553564E2,2.0607927E2,4.6951676E4],"tree_param":{"num_deleted":"0","num_feature":"632906","num_nodes":"13","size_leaf_vector":"1"}},{"base_weights":[-1.1187169E-3,1.557564E0,-2.16962E-3,3.7961266E0,-3.6037485E-3,1.6073744E0,5.906036E-1,3.4134152E0,-5.1996927E-3,4.483053E0,5.881537E-1,2.4815302E0,-7.3860134E-3,5.0271463E-1,1.5363791E0,9.4028085E-1,3.833324E-1,5.63126E-1,-3.0816437E-3],"categories":[],"categories_nodes":[],"categories_segments":[],"categories_sizes":[],"default_left":[0,0,0,0,0,0,0,0,0,0,0,0,0,0,0,0,0,0,0],"id":45,"left_children":[1,-1,3,5,7,-1,-1,9,11,13,-1,15,17,-1,-1,-1,-1,-1,-1],"loss_changes":[2.6158768E2,0E0,2.610589E2,4.1077515E1,2.6126334E2,0E0,0E0,2.5968872E1,2.6035342E2,1.31058655E1,0E0,2.9047485E1,2.6022913E2,0E0,0E0,0E0,0E0,0E0,0E0],"parents":[2147483647,0,0,2,2,3,3,4,4,7,7,8,8,9,9,11,11,12,12],"right_children":[2,-1,4,6,8,-1,-1,10,12,14,-1,16,18,-1,-1,-1,-1,-1,-1],"split_conditions":[2.00001E0,1.557564E0,2.00001E0,3E0,6.00001E0,1.6073744E0,5.906036E-1,1.33E2,2.00001E0,2E0,5.881537E-1,6.1E1,2.00001E0,5.0271463E-1,1.5363791E0,9.4028085E-1,3.833324E-1,5.63126E-1,-3.0816437E-3],"split_indices":[66382,0,372149,632905,382356,0,0,632904,289780,293164,0,632904,87230,0,0,0,0,0,0],"split_type":[0,0,0,0,0,0,0,0,0,0,0,0,0,0,0,0,0,0,0],"sum_hessian":[4.7930137E4,8.698243E0,4.7921438E4,1.7088266E1,4.7904348E4,8.172181E0,8.916084E0,2.1365623E1,4.7882984E4,1.1104687E1,1.0260937E1,4.1065353E1,4.7841918E4,2.7284627E0,8.376224E0,2.5586998E1,1.54783535E1,7.2166405E1,4.776975E4],"tree_param":{"num_deleted":"0","num_feature":"632906","num_nodes":"19","size_leaf_vector":"1"}},{"base_weights":[-9.810718E-4,-1.1304853E0,3.8405373E-3,6.088824E-2,-1.1395639E0,1.9844632E0,3.016194E-3,-8.3535767E-1,-1.1791433E0,1.805493E0,2.0354171E-5,-3.198753E-1,-2.411646E-1,-3.345268E-1,-1.389042E0,3.007896E0,1.5927625E0,5.988848E-1,-2.6946985E-3,-2.6445585E-1,8.1343345E-2,-3.5557908E-1,-5.3341603E-1,1.0842903E0,3.1318676E-1,-2.5393945E-1,5.043332E-1,6.188915E-1,-1.5983536E-3],"categories":[],"categories_nodes":[],"categories_segments":[],"categories_sizes":[],"default_left":[0,0,0,0,0,0,0,0,0,0,0,0,0,0,0,0,0,0,0,0,0,0,0,0,0,0,0,0,0],"id":46,"left_children":[1,3,5,-1,7,-1,9,11,13,15,17,-1,19,-1,21,23,25,-1,27,-1,-1,-1,-1,-1,-1,-1,-1,-1,-1],"loss_changes":[2.607095E2,2.6946106E0,2.5976056E2,0E0,1.4502563E0,0E0,2.573784E2,3.408121E0,8.2470703E-1,1.5438934E1,2.57915E2,0E0,3.1155918E0,0E0,8.421097E-1,9.045464E0,1.6362534E1,0E0,2.5849033E2,0E0,0E0,0E0,0E0,0E0,0E0,0E0,0E0,0E0,0E0],"parents":[2147483647,0,0,1,1,2,2,4,4,6,6,7,7,8,8,9,9,10,10,12,12,14,14,15,15,16,16,18,18],"right_children":[2,4,6,-1,8,-1,10,12,14,16,18,-1,20,-1,22,24,26,-1,28,-1,-1,-1,-1,-1,-1,-1,-1,-1,-1],"split_conditions":[4.00001E0,2E0,2.00001E0,6.088824E-2,3.7E1,1.9844632E0,6.00001E0,2E0,3E0,2E0,2.00001E0,-3.198753E-1,2.00001E0,-3.345268E-1,1.03E2,1.06E2,2.7E1,5.988848E-1,2.00001E0,-2.6445585E-1,8.1343345E-2,-3.5557908E-1,-5.3341603E-1,1.0842903E0,3.1318676E-1,-2.5393945E-1,5.043332E-1,6.188915E-1,-1.5983536E-3],"split_indices":[106467,10151,562637,0,632904,0,490934,632905,632905,632905,381709,0,611522,0,632904,632904,632904,0,113448,0,0,0,0,0,0,0,0,0,0],"split_type":[0,0,0,0,0,0,0,0,0,0,0,0,0,0,0,0,0,0,0,0,0,0,0,0,0,0,0,0,0],"sum_hessian":[4.78697E4,2.0248442E2,4.7667215E4,1.2248425E0,2.0125958E2,4.942647E0,4.7662273E4,2.5715685E1,1.755439E2,7.808816E1,4.7584184E4,1.7947239E1,7.768445E0,1.3933582E2,3.620808E1,9.76344E0,6.8324715E1,6.3632538E1,4.752055E4,3.1324258E0,4.636019E0,2.6416826E1,9.791253E0,6.817938E0,2.9455028E0,2.0882604E0,6.623646E1,5.9502132E1,4.7461047E4],"tree_param":{"num_deleted":"0","num_feature":"632906","num_nodes":"29","size_leaf_vector":"1"}},{"base_weights":[-8.8179106E-4,4.032647E0,-2.2165794E-3,4.5186663E0,4.745361E-1,1.4841495E0,-3.2922192E-3,1.4614518E0,3.0315802E-1,1.469686E0,-6.8518464E-3,-3.1971574E-1,1.5947585E0,-1.6050555E-2,5.585098E-1,-3.5152054E-1,5.0006706E-1,4.4164833E-1,-5.9502576E-3,-7.363171E-1,1.752747E-1],"categories":[],"categories_nodes":[],"categories_segments":[],"categories_sizes":[],"default_left":[0,0,0,0,0,0,0,0,0,0,1,0,0,0,0,0,0,0,0,0,0],"id":47,"left_children":[1,3,5,7,-1,-1,9,-1,-1,11,13,-1,15,17,19,-1,-1,-1,-1,-1,-1],"loss_changes":[2.5726578E2,1.1682007E1,2.543199E2,1.0739349E1,0E0,0E0,2.5041931E2,0E0,0E0,3.821158E1,2.4778746E2,0E0,2.3929382E1,2.6401703E2,6.058957E1,0E0,0E0,0E0,0E0,0E0,0E0],"parents":[2147483647,0,0,1,1,2,2,3,3,6,6,9,9,10,10,12,12,13,13,14,14],"right_children":[2,4,6,8,-1,-1,10,-1,-1,12,14,-1,16,18,20,-1,-1,-1,-1,-1,-1],"split_conditions":[2.00001E0,4E0,2.00001E0,9.4E1,4.745361E-1,1.4841495E0,6.00001E0,1.4614518E0,3.0315802E-1,4.00001E0,6E0,-3.1971574E-1,2.00001E0,4.00001E0,2.00001E0,-3.5152054E-1,5.0006706E-1,4.4164833E-1,-5.9502576E-3,-7.363171E-1,1.752747E-1],"split_indices":[149183,632905,330248,632904,0,0,369411,0,0,399753,632905,0,139426,237286,416811,0,0,0,0,0,0],"split_type":[0,0,0,0,0,0,0,0,0,0,0,0,0,0,0,0,0,0,0,0,0],"sum_hessian":[4.778156E4,1.4807677E1,4.776675E4,1.1653096E1,3.15458E0,9.379684E0,4.775737E4,1.0235051E1,1.418045E0,1.1414018E2,4.764323E4,5.012314E0,1.0912787E2,4.6881418E4,7.618118E2,2.3856525E0,1.0674222E2,1.17905045E2,4.676351E4,5.6537538E0,7.561581E2],"tree_param":{"num_deleted":"0","num_feature":"632906","num_nodes":"21","size_leaf_vector":"1"}},{"base_weights":[-6.9222297E-4,1.3186496E0,-4.676196E-3,-3.321904E-1,2.360239E0,-9.7582257E-1,6.8013696E-4,4.4513874E0,1.5540956E0,-1.7612915E-1,-9.882218E-1,-9.8835117E-1,5.9996094E-3,3.1942725E-1,5.1666946E0,-3.004611E-1,1.847259E0,-2.324163E-1,2.2160925E-1,-2.9876953E-1,-5.7152796E-1,4.2677027E-1,-1.0137331E0,-1.0681956E0,1.0892321E-2,2.721677E-1,1.635739E0,8.499705E-1,2.2912142E-1,-2.2833443E-1,-3.828987E-2,2.1862216E-1,-3.074342E-1,-3.2247758E-1,-1.5373206E-2,-3.2690352E-1,4.7175875E-3],"categories":[],"categories_nodes":[],"categories_segments":[],"categories_sizes":[],"default_left":[0,0,0,0,0,0,0,0,0,0,0,0,0,0,0,0,0,0,0,0,0,0,0,0,0,0,0,0,0,0,0,0,0,0,0,0,0],"id":48,"left_children":[1,3,5,-1,7,9,11,13,15,17,19,21,23,-1,25,-1,27,-1,-1,-1,29,-1,31,33,35,-1,-1,-1,-1,-1,-1,-1,-1,-1,-1,-1,-1],"loss_changes":[2.5010345E2,3.6458478E2,2.4676773E2,0E0,1.6256854E2,2.4061127E0,2.4822435E2,6.0966248E1,5.7368576E1,3.414316E0,2.4978638E-1,1.6887604E1,2.4665411E2,0E0,2.231128E1,0E0,6.923006E1,0E0,0E0,0E0,4.9010825E-1,0E0,5.5661926E0,1.4011536E0,2.4850356E2,0E0,0E0,0E0,0E0,0E0,0E0,0E0,0E0,0E0,0E0,0E0,0E0],"parents":[2147483647,0,0,1,1,2,2,4,4,5,5,6,6,7,7,8,8,9,9,10,10,11,11,12,12,14,14,16,16,20,20,22,22,23,23,24,24],"right_children":[2,4,6,-1,8,10,12,14,16,18,20,22,24,